0.0016039225056505302 0.005679007445763583 0.007281685918399706 0.005422983089409096 0.0048434012868218855 0.002949461535031398 0.0023321473676318804 0.005047246434345373 0.008927113046201642 0.00573378625739512 0.004584524192122832 3.237774156092399E-4 0.0053860854323783324 0.004002337064173493 0.003858404529534088 0.00895035033942827 0.008821125966652387 0.0028131969985171236 0.0034257402875130416 0.008560721175506263 0.007772214400529014 0.006576713163896824 0.0012359078638768085 5.352059602350967E-4 0.004661931381760774 0.004711547978457483 8.080295310841101E-4 0.0027623112786680916 0.004890981592716863 0.0033147793175502117 0.0010992900606906454 0.0016546333541747726 0.004240672990697679 0.006498506993098397 0.007798250489451386 0.004271088017697553 0.004524725168701185 0.0074423371960685375 0.0013598504663126188 0.10580137226454893 0.19624909867747775 0.08157170453859204 0.0019204209540336383 0.02359204618670974 0.028973667981485256 0.02053287602825706 0.0023376844029101185 0.005731767015727515 0.003169755884062479 0.007527985096641808 0.005574665292869054 0.004381659637049576 0.005294015143055002 0.006989582685459237 0.009547649418698533 0.009060657345109795 0.006832528793324954 0.009650975539337324 0.006873345830313339 0.005156529313876827 0.0076205223948701 0.005023102818267201 0.011129184402011326 0.00628646355393446 -0.006981635741220024 0.016122960121387128 0.07159777711038753 0.09207525973702278 0.15546597857822247 0.08158778686992607 -0.00970182644875492 0.06181591860600468 0.299648782849115 0.2640183296592672 0.06617165292257864 -0.0027290506657747476 -0.0028778621948787934 0.006166925938795591 0.0075499452239256295 0.009205938617456524 2.7305730371809927E-5 0.003610110997199585 0.009397645456092988 0.0032076542377564433 3.7804573644906414E-4 0.0011188598020685147 0.0019221934111252476 0.0015246958778084303 0.006230857643630985 2.623634444114779E-4 0.008296874060641167 -0.05805993529855807 -0.3928481008011956 -0.07564884811243418 0.38121083695982994 0.12895319714153444 0.20299243948591952 0.10203223726112064 0.08617387868664764 0.5457119435938989 0.914236971387995 0.72451062287429 0.8052761999107331 0.12423114971397681 0.11723709217461978 0.05236361785352477 0.002015544786680188 -0.0017013417145763207 0.01027485474174008 0.006512270530101024 0.002457507276790737 0.00965447111147603 7.285120776125054E-4 0.003825759606542269 0.010165028284973692 0.011136262657730999 0.04657869377023309 -0.05415176466881495 0.042488932341512194 -0.3141818455388069 -0.7288587290818281 -0.5173290559908876 -0.39350704058082936 -1.7658680474103952 -2.6561384063140174 -1.8744656454120567 -0.3453046877751447 0.5064537796306043 0.1506751420039723 -0.4657272191910259 -0.9140440275077563 -0.8767205509332193 -0.5359733329496 0.01451207776288514 -0.0808777432166716 -0.0572498750040928 -0.038034791552325926 0.004981434862795823 0.0034704119012053773 0.007226525592302369 0.009691926618470813 0.009143275131243099 0.010383783025384985 -0.00485450269305081 -0.15554361085780208 0.009913043125041661 0.23906856831329257 0.00646418159139918 -0.919915375273423 -0.7134675401141231 -1.466314444556626 -1.132206135829307 -3.035599709057551 -3.99819292367963 -7.50695208299413 -9.037840194216239 -7.825107548714428 -6.042373974766605 -2.884211784519136 -2.881435598455455 -1.1117154730318264 -0.18815261769781966 -0.41187211799250373 -0.8808368622081374 -0.24138637850243572 -0.0504642530508648 0.002201156198699144 0.008765447584618181 0.0070429272037122095 0.0052601609677744975 0.10991202006790925 1.3291192578810302 0.3298569978526051 -1.5248347783599343 0.11920034864624 -1.1765463755555263 -1.370974181462805 0.24432031783835984 -0.7113168722174712 1.6761072284369518 -0.8649899995611416 -0.6459078463405944 -0.43857836249276805 -2.3574345140701793 0.6838403550958629 1.228414644040395 1.0651630950031927 -0.5656518378214764 -1.1131373464669496 0.8283893717859492 -1.8536268593289544 -3.0608573409636626 -1.3920690352405205 -0.3579448097450964 -0.16998473028897754 -0.05192819540926232 0.008162042712115021 0.06575675345072654 0.5523340350430019 0.7800448018977567 -0.6884767992258476 -2.3248212362914606 0.47581536156868715 0.699244478790111 0.8314285800030522 1.8044956361038966 1.5693007885080499 0.05633254115723238 2.4464122511906203 2.8275418335819897 6.600609135436407 3.7356041095111725 3.994234650483341 0.2921902604125991 1.2480878360924739 0.15131578592011366 2.7338823561925074 -0.9466841173961396 -2.108391550085192 -1.3374596441451154 -1.9332203436358941 -1.6356363258590307 -0.4690371024278139 -0.09030418872340759 -0.12802965818829154 0.16171916249344678 -0.5475823329689966 -0.45462073665124253 -0.07879795351482724 -0.9097976788657434 0.17292451652221677 0.5893042535046531 1.0358401667164148 0.42446872640274996 -1.21077646478226 2.141862807807145 -0.279408772748578 0.6202183929530595 0.8046675058622117 0.2954271644403528 3.018231989898746 1.187267402561771 1.4298927305429778 0.2803037412456913 -1.796767399189109 0.2978887727430334 0.7129614092287829 0.6951188009563891 -1.8382371596105105 -2.2496022413197774 -0.5831047966167541 -0.006699507591064139 0.0015426195893106067 0.17116242205943094 -0.6327273424785885 0.18038207349175603 2.3548438626633246 1.3831950906738748 0.6445492654568172 0.3278553190520353 -0.5575287576722904 1.7368235516480124 0.6751783340744246 1.6189576296884847 1.9211750182920815 1.0083399009869851 3.4546116378656664 3.884177059972413 -1.1208132516657539 0.7695120866236461 -0.5520592428538306 -0.542534659922217 -0.31187504620223017 -0.2783110156943312 0.38593137278758927 0.846457482868799 -1.1376427830466824 -1.0336316459062214 -0.33168255517580486 -0.03131405591632962 0.006682515945978275 0.023744031643832854 0.9083500819436927 1.340007787012498 -0.9578080324502487 0.6215436677528339 1.9659153277558896 -1.8350632151711095 -1.8836228325048563 2.30821091903581 -1.60754479471653 0.6928321792106256 2.261148081357013 1.2702193947807925 4.452636415074194 -0.922295031507816 3.1308993189165415 -0.6000401616452544 1.7643183193968892 -0.6046151367211734 1.4693681941296475 0.46748413414266654 -0.27491112549629043 -0.39866498847200826 -1.4327865472552368 -0.4679653459467942 0.02537515426888022 -0.09510824707428454 0.003514166465058142 0.008810696906738982 1.47379152187777 2.320974594114239 1.314830783376232 0.948083781299217 0.946219244182296 0.7047158043444859 3.985716896101279 1.8515379425071057 -1.7081169724081138 3.2043008433623354 2.162307965225465 5.055349849999953 3.637556670671555 1.7846799830104985 0.9683677325801545 1.0275644360963523 -1.3475910865412477 2.7274930691127484 1.4403217790174392 2.0529770269680703 1.5646110357599659 -0.22928166421604612 -0.05995483935942605 0.8116696100611979 0.06644303437743738 -0.0126056199165881 0.007629280776646166 0.05476283713934246 -0.4382940987446879 1.4257502108065314 1.7172083193186334 2.619017889240319 2.6321885694030005 1.82393856286459 0.9912254755514555 2.0709663351375656 0.12266897340635716 -3.5173753463638944 -2.425308098438724 -1.3779283048064448 2.948553268376929 0.374512365981844 -0.45736889673152076 3.38197684594257 1.4888729071565492 1.3789499586306024 -0.43277624227065176 0.0480970500954773 0.7443768936801379 -2.062290771855936 -1.5642617013706768 0.4788986021990851 0.8218203991619278 0.018810013719806798 1.1273215433953813E-4 0.029995476116105885 0.012137001692555275 0.42290244634315216 2.2645494865119566 0.6703369814455129 0.0014560449089696195 -2.161609542022757 -1.564286798640284 -4.091033311749079 -0.9914684145011908 1.0737260801902309 -4.221198608450949 -1.2734416892642313 2.2082456444243297 1.0100232974447707 1.772511864614035 -1.1198564224138703 0.7304218219541266 -0.5710017849460763 1.1467587820062586 -0.29496970319798327 -2.139253588016931 -3.558272276695781 -1.9279233713761166 1.1330846137871529 0.57833166077878 -0.21172481195544585 -0.004620481381842968 0.046685722292433576 0.327101080431642 0.5811232789711661 -0.708308542850033 -2.0334468969751645 -0.08420039619034923 -2.934529924879291 0.032355555409952795 -0.8038255178654365 -0.2763904583351739 -3.417397126646311 -3.0609998884265446 0.08023324148277594 -1.1991547637022073 0.1848902189964874 -0.2205098543266254 2.6141567724893524 0.5076302753283445 -0.3879568058844978 1.24716688144826 0.7740362955281468 -0.08774769579095103 -1.8363560954654714 -2.759344668853508 -0.2245844725758846 -0.3706695675937919 0.009419716784874538 0.0015528524917964588 0.002270184286172056 -0.06769439257857685 -1.3946783217051895 -2.3705508724731077 -0.2950396639534625 1.6141408362395646 -0.735265297819432 -1.529014361326155 0.20549000900267864 -2.5331617378480566 3.286719501795583 -1.9025445006161898 -4.685304251918849 0.6141950119851602 0.4255433176812355 -1.4996617176643452 1.9820766689635247 0.6975306392916221 0.6302034246443108 0.6028587583937687 -0.4036649020450501 0.7483996333720399 -2.6865421960933853 -1.8784487581794418 -1.9387228232362517 -0.8169215448437067 -0.1892631207688201 0.005984010116057591 -0.0029336391103201393 -0.34800027199825595 -2.447196393436618 -1.8091580524955617 1.2090325117997722 -0.8648816044183436 -1.0701541556777563 0.3762469004918541 -0.05181100739468356 -0.6844083332535593 1.3470900074743504 -1.3178365803131218 -1.0675696038380502 -2.122569700575651 -1.0971542782266097 1.707521806143593 -0.33919717032903623 1.060118082473348 -0.11866139337855118 -2.3515778990556373 -1.7630044897543906 0.8313460910823682 -3.679144918540404 -4.094015895694529 -2.694498334581797 -0.48993897838690365 -0.14067604280980192 0.0051393089855249876 0.009076349376733276 -0.5606956838667605 -1.3142669259872677 -1.4414341675159217 -1.2975322294579403 -1.3677121758316004 2.7937390751584026 1.1509840350282545 1.1538543313540233 -1.5882252792579827 -1.1529551358083434 1.5427873086909636 -0.24694772846130428 -1.4986621375966878 -0.7708504657745394 -3.044280104880859 -1.4682320638744932 -0.34324933061292945 1.0710889146575269 0.8001384527304477 0.20612892413642958 1.1631915608363574 -5.395209553804828 -2.740021373635592 -2.597863540422436 -1.371990890223822 -0.20921361406863692 0.14089409589319446 0.0026580299212365707 0.5147228541156623 -0.9825988029892849 -1.2417301994280767 -2.7151863825772575 -2.611302423410656 -0.9842125056479476 -1.8297800991171556 0.2602772279421462 0.7362279847383113 0.8373844961296488 -3.6946740056660605 1.1694935259555053 -0.027096815085616524 0.1686016144096704 0.762320830378481 -0.24624642812706535 -1.1461248768995609 0.37036164778020697 1.1763806953893774 -1.7732298328813634 -1.951651609521922 -5.808469923724916 -4.081622874893922 -1.1022985631401596 -0.11739753264815815 -0.0032217201192199655 0.005208009375384349 0.02019516539450782 0.9104967561464922 -0.7938910919706085 -1.2898831128185921 -2.457083045477341 -4.3853117596710565 -3.5000199049927185 -2.3087996689692964 0.2483809648149826 -1.0701410754947698 -1.3502036424076602 -0.21899383217194143 -1.3989469294880308 -1.7158642414772158 -0.6412813465102898 -2.553860058175325 -0.1716476369482768 -1.3228501135437636 0.8879055463120552 -0.3572962955788878 -3.8092285274060727 -2.430483357810906 -3.265905567407121 -2.3677123765005526 -0.8983062861347049 -0.7274083258147552 0.004448725913392293 0.005143625761818175 0.02231391632534735 0.014122763015838192 -0.818524831319285 -1.7675332392284753 -2.7474702546376193 -4.452842856901916 -5.08184954209103 -2.685891718460677 -3.456136868460018 -2.462943478526811 -1.0815605767305878 -1.3764812003101514 -1.5708385317615352 -0.9733226528000717 0.23498719292550618 -3.728095085590188 -0.572275366809753 -2.280381745144974 0.8720521301764885 -1.1844960004575023 -1.5615381518340994 -0.8129083268155743 -1.1299339499027747 -1.1094090889497965 -1.0230257991903469 -0.5714196307425096 0.006223033610291243 0.008153123137326437 0.004942840375108083 -0.051135757455777614 -0.6837839488436744 -1.136692627623549 -2.1518023832415274 -3.610330818015044 -1.8782021782978895 -1.372835170400823 -3.67061161330047 -3.644218718779226 -0.8219323791504773 -0.2243016900433213 -1.62704792348326 -1.430785837984582 -1.974149988202519 -2.4469580132579094 -1.1935132736438958 -1.2715162424934598 -0.580500839792022 -1.1190521329259497 -0.9761268890207992 -1.3065118177862678 -0.9941063411450327 0.35565468388457605 0.12977540792078815 -0.11287513459496847 0.0021549735615097746 0.0017768754880314254 0.008676377549545934 -0.0646225912427047 -0.2857427431735766 -0.34796977384917965 -0.8022313099213975 -0.8160594018815999 0.4420079173763885 0.528288697400953 -1.7079006850682605 -0.1008559342349258 -1.2907473194109407 0.39641373022606313 -1.8093272685827533 -0.9818740771041248 -0.25565721741874325 1.134741206581353 -1.3504357608868107 -2.05560368990792 -2.309946672354131 -2.589500018038078 -1.9261619144253659 0.2818907088811678 0.6074729899022155 0.8968354023242125 0.39753001727735504 -0.004936743340642806 0.0017038111126286178 0.0043785004827208256 6.841194092234837E-4 -0.11612490453440395 -0.3206586777818554 0.9993924911841144 1.9648601405067412 2.0312031604363234 2.5632794370381435 1.078123836806117 -1.9048161529695153 0.7410253808344639 -3.3587322279998095 -0.9412803572122599 -1.4359720318295692 -2.036961947982179 0.983552975742628 0.3688394895443284 -0.9524417465502514 -2.1729205019932074 -2.4391075242136804 -2.0169728351232328 -0.6791452034822165 0.848134363532732 0.7002691800609646 0.9718675300721179 -0.12666814187581896 -0.004916634646295989 0.003613814891818874 0.0054167422907416595 0.006100207074830704 -0.0018344269520153378 -0.041235797765276576 1.1016886814014015 2.6849394233654533 3.139856483252047 3.1451905625650127 2.704588660803445 1.3298316851176923 2.3497679699105705 0.026018284118510763 0.8922821724030273 -0.45673249510569414 -0.2147266718568879 -1.366525370036453 -4.041754630570451 -0.27735433047195224 -0.8107402391920476 -1.6813846712314682 0.7339850432780006 0.5852152133906752 1.0416472634705027 -0.34332533081760647 0.6031398818456152 0.12268550751607664 -0.012267048675578892 0.001554157376964771 0.0017572920704848627 0.0021708636205706824 0.0017263536610739635 0.19068941881570445 1.1439947293876647 2.2331691333762143 1.544787002143694 1.0949553776835053 3.0869456166105436 1.3072280200946456 1.259938668540276 0.5544630110367812 3.0427402945666815 0.8172839989470023 0.28892843562890286 0.5513120632160088 3.0833991557624456 -0.7728811851333177 0.9417413791199829 1.707127048454148 -1.0159167860969625 0.43906603724454024 1.7953298386946155 0.30580627155487566 0.19953596733448217 0.009790814266558501 -0.016593700136729016 8.012134900468016E-4 0.004376940839126486 7.053374270448531E-4 0.0045810657822364445 0.0021389071290420386 0.10117788696650912 0.5939624468225042 0.7039683316981699 0.731215827225665 1.1694902583788749 2.202604120164567 2.2277643529833737 1.7499413972622544 2.29204948001861 2.2203915479021843 3.3362141201323796 0.4071552838636064 1.5250387304667632 2.4914340026557444 3.6412726998751963 2.7901300320712337 1.2280547878533272 0.9043617919461936 0.8091123880913673 0.02457646161565861 0.010606960335390834 0.004604980021622109 8.082593218617373E-4 0.00301640055952112 0.0043542701309746265 0.0010921918750771765 0.006889379174822478 0.007374489198003378 0.0028507151739599183 0.006506681999790201 0.03877435827139284 0.18272220269262163 0.16998033551845543 0.038781733745674764 0.3424480334797597 0.24447410198974937 0.14492372377899554 0.20759658356298516 1.3053021183633677 0.23142519209835943 0.7083425419447172 0.3781026361911134 0.9596556268978912 0.3773679278222128 0.16415439540975205 0.3712962010008742 0.7220420994926816 0.16463524753844339 0.006967541095134151 0.0029470628896532025 0.003862931058891385 0.0023789307246298162 , 0.009780323779437477 0.005364891966790618 0.005772378469097206 0.005048581817027847 0.004283634134466985 0.005967582820174383 0.005668581160830021 0.006336526785532315 0.0028738914766052526 0.008748810641961502 1.639830139945342E-4 0.0023000689153757337 0.00427885658604837 0.005507517598207537 0.001174208314823048 0.003300933710377804 0.009847514666102173 0.006026718971215375 0.003117530530713785 0.005172020991358785 0.005300661505230127 0.008729629062933491 0.005751688101144444 7.9445623947631E-4 0.004646730980694781 0.0047665873363747484 0.005320981599248535 0.009398854897984116 6.478041562190406E-4 0.0060369468557446215 0.005955586467786305 0.004900542861104995 0.009718993873027559 0.0010802412196735274 0.0052735604066276535 0.0038878547058174137 0.0017868591202705167 0.010035871455557925 0.004382334138763354 0.00894894229167558 0.004125872994551174 0.010073564219047947 -0.08571477600895229 -0.22368914392664127 -0.010460518027436288 0.010519703357675226 0.009622994533365112 0.008979053473005719 0.006944839410210392 0.003609475551930242 0.0020386951025152355 0.005586169757102487 0.009197627499270604 0.008959439240416143 0.001089732686644519 0.008979919981002728 0.009487044782578223 0.009091556804121602 6.685031663648629E-4 1.960652079978571E-4 0.005058525960725548 0.008696523673104039 0.008064007428611922 -0.13780897907689663 0.017409102984963423 0.11501319799688398 0.18994377729919876 0.25695209930834867 0.1993620194066061 0.5860741763789701 0.09227185081088107 0.1961814075314995 -0.008637180081714574 0.08463662584949026 0.01570114721271343 0.22466932013903856 0.26243106248004605 0.09839408175410795 0.1766447803459433 0.11025510103996014 -0.018526040682518456 -0.008831861503846487 0.008188263518362021 0.006733393850446828 8.392711174316136E-4 0.008348604206607404 -0.15494591031741203 -0.05570237870802324 0.007329745193791081 0.02022445956004644 0.06648331204638683 -0.31057595374274155 0.18772033796374077 0.35216148879543285 -0.288480334536352 -0.4964340388557815 -0.7395134983180948 0.35371071365517404 0.06137937324456694 1.0854535978711175 -0.261068886221649 0.8413511919148227 1.9503106388045368 1.8083899152439926 -0.4506698314683154 -0.04727175966971162 0.9110948885571235 0.2970733598399449 -0.288445992489924 -0.22314402798358982 0.010147724760536133 0.0021631651576666778 0.0026674338969818957 0.003214419912831418 -0.5326768264712175 -0.1307228806967854 0.0015368399680571103 -0.17774983029684854 -0.19141433973676786 -0.3629317870192414 -0.7270141918890883 -1.0531528215127457 -0.4382707421356496 -0.6824081654310732 1.224921499667781 1.0805363111183035 0.25033732028452677 -0.3501510830862266 0.27036763185452806 -0.04258148149640216 -0.05617920082340885 3.5017434989031946 0.5601394362317316 0.07374030918303831 0.6393533543515973 1.9360695850742469 0.5685106439701172 -0.6892720627728908 -0.4628371541111974 -0.042960363962092 0.0075021563382059115 0.001975039330244912 -0.0735493113054899 0.01359456329735471 0.12002537151624995 -0.09739117253777975 0.29745169355845685 -0.16196101078013075 -0.6205210438320012 -1.0291943264536096 -2.6611153189056393 -0.7785242758991158 -1.3537761943602984 -4.251197314239231 -0.3777723571823886 -0.2255906412244189 -1.2290562762008495 -0.7131895487319881 -0.8940272055755851 -0.6575398462110409 -1.9554833281378456 0.28402410032321335 0.7345574416708595 1.06593965111782 -1.6509353818338985 -1.393035033019809 -0.1722556132794076 0.03737297639358435 5.05113884749212E-4 0.006395676021589015 -5.117329184213061E-4 0.017339186217711557 0.09480856184349118 0.44052611923650087 0.7858728741989359 1.0768308414086822 -0.2065261784681434 -0.2211895651804009 -3.064181436262244 -1.504299206467725 -1.2069234812221143 -3.6834181761081624 -3.846892022224775 -2.7993417541809444 -1.174079068194287 -2.449660667659989 -2.9679055251929967 -0.413396930637957 -1.4359879363033503 -1.1741515771869886 0.13493744483802023 0.26537205930884766 -1.0316091682292208 -1.4867882803514145 -0.21439671385536357 -0.08181104665277013 0.005425683715862106 0.02461188464229812 0.13553270891436828 0.28292491249349144 0.7361577335651475 2.070144297657361 2.413604285926289 1.847777363686027 -0.2877984833729476 0.5528362286130724 -1.0603789025739752 -1.862006299762054 -3.028056112794145 -2.8957866043847442 -1.980316122573846 -1.9111401250801099 -2.7353128186872024 -1.177773258034 -0.6379124286575097 -2.6877517917668623 -3.533396284669141 -3.1088133726286964 0.11480176361460726 1.4293724541004422 1.1529351760269522 -1.3734195519363677 -0.19392015635044896 -0.13043427176771138 0.0037987516454455967 0.3221260350991016 0.5792648858813025 0.5992458040389307 1.6337765647947744 2.5245694117438786 1.6507675987729784 0.3476626636364273 -0.4769665945620622 0.9208098022307398 -1.195781838152216 -1.2011193241910427 -1.092390212802171 -1.0634162690732432 -3.4273864173704816 -1.6667364081104745 -5.439262557904423 -0.7448654840489942 -2.0386812882111633 -1.6012661187996253 -0.268480387608247 -1.1659299493379347 -1.1310559038915167 0.6056234329084973 0.9315151271845469 0.09335046789061 -0.026117408483799873 0.0025106275281379445 -3.977403789902874E-4 0.44538763853323454 0.7866757421568753 1.0280024026008552 2.0991288022782717 1.5900989768432052 -0.935652351511936 -0.1901927195377053 2.3912539214260438 -1.7695254754459324 -1.075879682711867 -0.3535316544795531 -2.1389714258776564 -3.7138240799874738 -4.6061614958050185 -4.11490370791434 -1.8031925453655746 -2.344411881945659 -1.2997811473367733 -1.9088030026468588 -0.3649242175507425 -0.4120626880708628 -0.713438604477512 -0.6636368578414438 -2.0682792134436796 -0.7759640289664166 -0.1982624598042223 0.0201528099225177 0.00196834270365034 0.4369360167120954 0.7059952871901557 1.1554954591590971 1.3622386722981472 -0.2231074090323338 -0.7200327438780669 0.6642871162279698 0.03949608801069289 0.2782062235328489 -0.32433972581875486 -1.0065837901655712 -1.1798076142122935 -1.416034344166873 -3.081161642229439 0.025352204326405947 0.07400026798160923 0.7851316091701505 0.04537510601199006 -0.7119108898308946 -0.5786054538770703 -1.6291444860972442 -0.1505290732666031 -2.4976341458239184 -1.5848825141449756 -0.9357593375930705 -0.6678064625486242 -0.03339407985676537 0.00851516485961016 0.30421213515086154 0.5707899292361995 1.361678139440228 1.0714748656726343 -1.3317956229258336 -1.9105984898839181 -1.236864966646805 -0.6549516106519401 -0.055160449367666925 0.4034873833228816 0.4387897367548351 1.0981020190218935 -0.6667108049024002 1.043529427273475 0.8355426793903726 1.5249320708019511 -0.5225144273106189 -1.4250045741273434 1.7452550320267428 -1.0058929923797195 0.6623521342439923 -1.6755641067191605 -1.7667975088912333 -1.3341148451338263 -0.5120039674594677 -0.841710913214037 -0.028037677408515496 0.00940502925081022 0.035944716818480084 0.4776873176157286 1.162732106333234 -0.3749373133037645 -3.5341791448924216 -1.4489256949593314 -1.9966733951001847 0.11894561414055693 -0.37824423215253844 1.5548343587031226 1.993879315182583 3.5762492577598715 1.6489697073689822 1.0340161075649261 -0.8662243793771542 1.7884405935314551 -0.6552604204318068 0.8766736747790852 -1.1550613738151354 -1.264662236518152 0.4742070901111245 -2.5650762312557784 -3.277204596436321 -0.8636839586749356 0.09292616188388611 -0.784090029125089 0.003840172266211081 0.0015610001029371442 -0.06074293803046438 0.01720723732166637 0.3298595909755512 -0.8643251694493532 -0.6208032900412715 3.9267781450504144 0.06339787710864513 0.2790917351514998 2.5338102695029074 -0.618762566061737 2.8400098911545313 2.5196734030031274 -1.1205310157838346 -2.190995944830283 2.716983239971284 -1.332023600218811 1.027478340621221 1.6785784422854746 -0.17175471054330838 -0.46639490318657006 -0.796701851523456 -0.8854568817142586 0.7509594883240216 1.7109437269756667 1.8370706765144662 -0.3885834591737385 0.008817944641397657 0.008400529740601348 0.011379390257206723 0.02793503561518255 0.32218211255406476 -0.44117641359778975 2.6679938120691213 1.676310567621256 1.6451682196370658 0.8954619361206705 3.0934059071257334 1.1202380644646397 1.8855855940277968 1.3261236788090713 -0.18438265006280963 -0.4043447435114908 0.8991957371367947 2.465223895957857 1.4451156639832683 0.037071541198103644 2.3342782229839867 1.6714749884706732 -0.29021976845273384 1.3534969942842077 1.1803109458506353 1.9679851640358739 1.745572717247149 0.04790779984449362 0.0021410009466933328 0.002993409419490321 0.002013865026183241 0.15377589107516743 1.7474001495048206 1.9622160812179827 1.5724933790967222 1.0844416291145953 2.307742062685876 1.6859148318139563 0.8629370979726214 0.3329507527716812 1.0181333035286306 2.375639779608511 0.39958824539752735 1.210481306303099 0.3540377567860755 1.2084156525083518 0.5696344165665218 0.5443821435214036 1.040102288713328 0.14778581929434162 1.3277047938923126 3.899343622737787 0.8136790812843869 1.2602650112752296 1.145818252132475 0.2529173451409449 0.013049492925396304 0.006726624656264032 0.001658032932348757 0.012057544202325226 1.1969716393309606 0.9843364812820021 1.5448738024553057 0.19974257399709758 0.82382218142981 1.0602758517131687 -1.290769549910495 0.22093742440300376 0.5024468723684511 -0.750461652180326 1.260590326572281 2.465093065646299 3.1124881605522323 3.178923427269855 3.6522516802050284 2.238612826824523 2.0163248400142306 3.7103417665247065 3.0736656869311387 1.8084496612761982 0.7230335372872075 1.6153039917806442 0.8288508498789245 0.1677902297790704 0.005110411193562458 0.003711552223196618 0.00864700666899382 0.18309362247989242 0.5682484329594799 -0.18195510781066418 1.1146194407805894 1.9363161168234073 0.6307669085266011 2.452693454544923 -0.15923755168742246 0.8198657410927865 1.2710725466432713 -0.5777152226885162 0.18462685156559042 1.3409844065891696 2.628614727318089 -1.1576000778598967 0.6144313939466566 2.0003180022482394 -0.608072929290965 1.6371138236212588 3.1168688113618868 2.2609895987825066 1.863333936775336 1.1136267491280973 0.5251756713792443 0.14754533966433342 0.005078659917998413 -0.0012589439455794494 0.0016264965851214676 -0.012270566087289277 0.44858464590112934 0.34525880395515013 0.30504342901554987 0.5740286987130043 -0.29090115175551146 1.445601712686834 0.10964695737726445 0.24229541327207066 -0.2611605285156891 2.4318118904779764 -0.18884051980876274 1.4698130837194912 0.9413974195601794 -0.1987354573825105 0.44265383308743056 -0.8054196145092197 -0.8168125246232116 1.0848689029010123 1.8025283860765555 1.4351518173121185 2.245167292533902 0.9093005056492757 0.2674813495657 0.08850555860433813 0.021591135288535703 0.00940187179803742 -0.004970767749016134 -0.06130834765334805 0.08344946550108741 -0.10927679404380329 0.8914612213448821 0.3411875109933298 -0.5180680600333838 -1.1785431468629903 -1.9706585787763002 -1.1142726717767446 2.5712410200228577 -0.48857981273252477 1.2991163291389316 -1.1970717322866278 1.768611559786006 0.28150174266843686 0.5785453039880434 -0.1428002084551889 -1.4211135997031412 1.2596551780437817 0.5885156346103363 -0.7753905266408779 1.3870349873627794 1.3097824592888152 0.19228200178442037 0.11231763362818907 0.014207455678079578 0.008392060963837496 -0.04223499818546771 -0.07161977303419491 -0.4608809350966294 -0.39827824917654137 0.09352242711767221 -1.7669573208100002 -2.324985821382184 -1.3998840698123955 0.20613442952762479 -1.1574201133656596 -0.5063147043730025 1.1680205661191647 0.555353610944944 -0.40511371633139825 1.431170583356982 -0.03194026115167092 0.516611445962691 1.2678441214168032 -1.573576959684093 -1.2091877258093706 -1.6905372773362477 -2.848686195648629 0.6724336580617293 0.8054353411043005 -0.2203445764372909 0.06157792536476586 0.0013984140887690023 0.0010785938722723631 -0.0030354979706022577 -0.07042532956562648 -0.35725602076466784 -1.010826351857739 -1.3412599128945635 -2.167404383104114 -2.6300930266550187 -1.082345969001061 0.9069067019163183 -0.4205025178822646 0.09611890921538323 1.220885128415361 1.5421920973588958 1.1223568682884604 -1.70272381037822 -0.635772032806363 0.771688476742684 -0.029949855094489733 -1.8564301213109227 -4.142893367954535 -3.506671310548614 -2.9464077029649225 0.11280035452530533 0.4249637917407855 -0.05893829382948467 0.14547403185681088 0.005441862890597254 0.008493752521175138 0.0075127774402487515 0.02742465951118754 0.02560299341863254 -0.38270215425278664 -0.9723666111441829 -0.9534772334238507 -1.7796559894847492 -2.347380614488338 -0.1777591331894225 1.8135142663160824 -0.8248305601835678 -0.4360127939740096 0.2658256616098566 -2.0752985353655364 1.2770020050195738 0.017749409121122734 -2.7905553837348727 -1.2735604384211452 -1.2792991583289068 -1.684473807134579 -1.3034045343962992 -2.204092976119764 -0.8712848979099928 0.3392526304165667 0.06285066433264266 0.046671602319652276 4.3692680823494086E-4 0.004548217893680059 0.007189926816741622 0.00669838666566704 0.014744793736989847 -0.036593534198923874 0.1459015532704416 0.9105484333394097 0.1822423696909287 -3.059227949143839 -0.9102735146699615 -0.2776519713557621 -3.155523687222746 -1.9758505233031922 -2.6933363289433925 -3.104001198193145 -3.40948595269944 -1.938379870746197 -0.7698483472589729 -0.39249752626228884 -0.11513560698305819 1.2470810449554202 -0.7972421476309922 -2.1553492547493893 -2.230297068284079 -0.6702889944501792 0.07863575724981481 0.03657346677984575 0.005341171653376648 1.0171727236143014E-4 0.005801790281500014 0.005540564815668749 -0.002442034319330127 -0.09038473487558528 0.5743424402706296 0.1325268578511533 -0.8619849423354593 -2.557633778842946 -0.6217437906603641 -0.3824975038259734 -1.0256215943190081 1.1706754971398883 -0.29747330976447334 1.3338480248342282 2.9262389751265956 -0.4463191106807895 0.8952520242897019 -1.1487819644681778 1.18384939337406 -0.8624196786083315 -0.8205027515455185 -1.8547793835311126 -1.9226123234611405 -0.6523218069347525 0.17893361247630482 0.035147019028127974 0.008559607575351139 0.007861726905005582 0.009404328105946474 0.0010299390542392534 0.002737597676348155 -0.0844041425996425 -0.836127751372257 -0.40361831990544683 -0.31901394528054267 -1.6054917246214382 -0.9855060525943371 -2.2206904138800945 -0.8034386956710202 -1.9356434386204466 -1.2569078191288985 -2.823967277448244 0.4721558183925112 -0.7143684934820583 -1.250513647284884 -2.830101121580653 -1.1106561178398453 -2.297423094874284 -2.1830157682413547 -1.0847864368181004 -0.19994526170072974 -0.11732746526635518 0.02709895054648028 0.039713692249856984 0.004260314065732394 0.007461943975143756 0.008350715778314867 0.003022102873185798 0.001033422255436739 -0.0025323985115221427 -0.6074030963180438 -0.8136289403790519 -1.0854878816835136 -2.4520721262689396 -2.9854717511424407 -2.9738680898181706 -1.807245338132653 -3.7510561141147596 -1.6611962520675239 -4.998581170919165 -4.631092167775107 -2.662128938842623 -2.5236029209792745 -3.7916270767537408 -2.3472837226934598 -2.1838026199450753 -1.3808172157209475 -0.17629594173498395 -0.2074994290575258 -0.019631103044599908 0.0031643762105773732 0.004236277810948678 0.009950091308151237 0.007693251603497732 7.046322262468641E-4 0.009365657685663685 0.007139922169768784 0.0013599633836954856 0.009737724201226714 -0.06773837499641483 -0.3634895393810067 -0.3574846379540564 -0.16283548030288686 -0.13687993222140893 -0.025100662172359414 -0.7948864255929625 -0.6579014950298446 -1.090417549587348 -0.533465206599337 0.0013025818724003624 -0.040539147466335905 -0.5089962942204559 -1.0120321494151656 -0.11836366489437633 0.1425892899326759 0.4567164791933513 0.10406290781107667 0.0018690183707822106 0.0019593344712468177 0.009451157201369272 0.0010507797563519394 , 0.005516098947067789 0.008356223638151354 0.008410338642941917 0.009418200766867545 0.002893431649041295 0.004338202139780176 0.006852876577342666 0.0020609875152120026 0.006712197233930243 0.0029725508639905076 0.00716024073239786 0.003474364358408053 0.0011034296098437917 0.001759237228412237 0.0015996056547881146 0.0037227010519472322 9.2225313867494E-4 0.004846390416248077 0.0021955442200108587 0.004399194466288714 0.006230251311759614 0.006320050590671236 0.0022776833931247276 0.007965505263876934 0.00420224343850988 0.007739701557696085 0.008058884651928172 0.0025125580130342575 0.00862879840525972 0.009658843610022526 0.009082376807106194 0.009228081879794943 0.002738344573230281 0.0033363233233873356 0.009693508986504252 4.3216204564468415E-4 0.023003954194875352 0.011744504686870959 0.01807579271495122 0.009749719222255745 0.08982501812905201 0.06742693205678224 0.06269926484164821 0.09102317011215974 0.05453876909578918 0.01933074634423751 0.06355801987735246 0.0450422839916962 0.00972635594485871 0.009086600677617398 0.0021191660500085455 0.0014815952131837992 0.0011104886459889164 0.007829605385644525 0.003249375992188709 0.008994681398908785 2.584264858158769E-4 0.005307455674703841 0.009975940172519087 0.007559795531205544 0.003758812452250547 0.0019495667917393015 0.17554391591045235 0.3956682720723272 0.9495813182634684 1.37380554774377 1.466124239009215 1.4778013059076192 1.6745540288710117 1.440766586298426 2.046195761229125 2.1024825303594916 1.48572281404366 1.0458462811112343 0.525375308505508 1.2843048682099432 1.2994479859035413 0.7720910110467831 0.3047340074807833 0.04176683346649804 0.017432943788989335 0.004541404342713637 0.0019398635331212223 0.0038257548245149643 0.0014132838070889055 0.009267475783397374 0.00784395829733682 0.014808334954491888 -0.005246989134055334 -0.027132673396496245 0.3136675947724254 0.5044788789538305 0.8797725498909323 1.2069088423557974 0.8474942147067671 0.5725376761217804 -0.5753982132835598 -0.64045702939842 0.318759475876289 0.020715075711177464 -1.0644246468691183 -1.4204929605283036 2.0346176265074063 0.2072035837789977 -0.27034390484386506 0.7807816412708871 0.6794848827661982 0.4733651027808511 0.49707219134432484 0.11314345342457405 8.276088211373863E-6 0.0028247785942645655 0.007095630455301667 0.0038382099214359696 0.004817628269588963 -0.017510032698930648 -0.1011046951679993 -0.46765855693222147 0.5750787927619684 0.8355092742318588 0.1803572725953266 0.37166176785730065 -0.2550199203940253 -0.9706647095104695 -0.7264996987969774 -1.0053861896195078 1.438527674652204 -0.6867136350433108 1.3412618572134696 -0.954953565608956 -1.5779267271864872 0.134538472163771 -0.23271509098057916 -0.08232152216835328 0.21719366357524864 -0.5085723742988302 -1.2418583216975716 -0.3372135898864413 -0.05403215162419964 0.0021221359699722026 0.008920679035929534 0.007398033647225465 0.002333032919151036 -0.0656398395818253 -0.40622060706474517 -0.12881226861032744 0.026416348818143816 -0.40055392628705117 -1.0500487698195913 -0.40839484045524166 0.6254573630490341 -1.103644472829533 0.04171334237148366 -2.5190718825221405 0.5462786020387836 0.8523840170342374 -3.276436672016832 1.225538220602323 -0.8505857737170108 -0.9230583972621746 -1.3486358029176666 0.029893251560383367 0.5335650116186439 0.13134558126380513 -0.8526647778753019 -1.5678163250114208 -0.31197621772222606 0.028083626402894333 0.007222598959198653 0.0050287700835688785 -0.041536964454900765 -0.6495980852375242 -0.8089783156777143 -0.7552485655234166 -2.3166579119749784 -0.4010780793849729 -1.0628143711099305 -0.1025377443060918 0.5750215643179332 0.33061671107882795 1.2760663092964946 -0.29892858392605537 -0.9315318829188728 0.1782158035212162 -1.5436037830633849 -0.15497622226478888 -0.6462246143365672 -1.0344165211689385 1.034303500762324 0.9240369283656936 -1.5616361309697313 0.5647239152429174 -1.7972086306799622 -2.109675529218224 -0.3697701071650965 0.02087505578860588 8.120395068970622E-4 0.0027066826280899648 -0.15847566599140128 -1.3330701703157768 -0.3855248894493883 -1.8161192131120856 -2.2926502397157202 0.8593426413752595 1.132402656327196 -0.5188155485807344 -0.0361434826097841 -3.0680375030111398 -0.7137051080611525 -0.5799758404814777 0.08988096594049867 2.3156841571863347 1.4821286203099866 -0.36509679208613915 -0.6394672018008458 -1.997538922228295 -1.1116871478841721 -1.5391852298462665 -0.1350249060533899 1.2599035485489045 -0.21749242890802467 -1.4997093509512769 0.2976956545247185 -0.00923812578528137 0.003498248842475673 -0.03595946254361911 -0.20567310860128507 -0.8342240849202333 -1.7191897726872831 -1.502384014731669 1.509363861595447 2.1298493705223116 -0.7798405700796468 0.9832436432575764 0.6043601633612268 -1.8046120400714976 0.4702291662040433 0.27730368708878633 0.09265871197263921 -1.5050939849548806 -2.3909239621132694 -1.0881383438548513 -0.20901151117458044 1.5833805753170396 -1.1605750144375548 0.17228576102178955 1.971850617554757 -0.09657071769186877 -1.847048255228949 -1.9220853169344971 -0.4136189411942938 -0.0031772297989300664 0.0014671872852623678 -0.015705213443943246 -0.5850169776085147 -1.594671200374838 -3.186553123631535 0.5796715490234082 -0.9463896435399475 0.9772434606654153 0.13638607486649393 -0.09189339185498593 0.8021951872660025 1.2349173958508237 -1.0331597903324283 -3.143848561517411 -1.740543880318996 -1.056542470914558 -2.4492892612880244 -2.9049671863062745 -0.40127351256257937 -0.32737715450573057 -0.5497149185285227 0.24601208833093502 0.7031971180995218 -0.26916861981400275 -4.023366898554806 -3.8043388497959696 -0.5937567074506757 -0.011061599379290311 0.006825331638283902 -0.015744227678305845 -0.7728268265993324 -1.530461122729412 -0.016317538463915954 1.3080731357601156 -1.2562556766887476 0.3440992563458569 -0.7500735158268634 1.8401765998388049 0.8363299009356843 0.6506733895876867 2.0436187812953905 2.4548651059927633 0.5119699878976969 0.060603947024808084 -0.5734151895830527 -2.470914402007075 -1.7639021193667845 2.333731231993892 -2.89261665335338 -2.402202012453238 -0.6224438416870296 0.6919989595127283 -3.517213673615152 -3.0966101047456145 -1.0225286039903465 -0.07944573298663234 0.007980692028376908 -0.04815427504242248 -0.5202113707271403 -1.0065942066503581 -0.6926590331142322 2.4539901878251795 -1.001256324187554 0.4275555919028006 2.702414519874138 2.742782365905002 0.880751296235974 -0.9261181124491747 0.5087102494037323 -2.8740563527392675 -0.3033979580889298 2.2947871916574476 0.7240541368289766 0.8787409160986062 -5.571752874751119 0.3338735432134118 1.3262848225402046 0.9622057121550791 -0.3363369723697701 -0.9642505347642484 -1.5151287431047722 -2.410490442071553 -1.4477819779159997 -0.07925302705410447 0.0053266303866205955 0.02266547175586546 -0.24704276343955708 -0.7260884566380857 -0.1844153719957262 0.3339246147791911 1.0517125112742896 0.595771737358398 0.2627339099307382 0.90153537402887 -2.4507317542976432 0.5094178830397963 0.9712525343415065 0.015957218353599482 1.53846630215148 4.482179602531357 1.2992652118897559 0.6537580085333443 1.096847394557181 0.7106102605443586 0.056497442114835386 1.7568838079227005 -0.25150643847576554 1.0513475256860374 1.8173124321175909 -0.26231969090737134 -0.9247044654578439 0.006254866295304235 0.008414395455550713 -4.435364356124083E-4 -0.4077841005186345 -0.2818806790319815 -1.2182955032032945 -1.5662801243284459 -1.3127099731299072 -0.5958004863469186 0.4566032153410061 -2.3285877142672486 -0.4138467968427846 0.6635124784407682 -0.1276807644961986 1.0108796912029678 0.2407626232175157 2.919273318854747 2.363042276599276 1.5093079891759043 1.0448840245215205 -0.20970983262626558 1.3417768479328562 -1.340649350472102 -0.9401403169332865 1.82672298365784 1.766078559208689 0.6669768361439127 0.014837611435626452 0.06377787450166952 0.004943802337457289 -0.006197883206936855 -0.10081341409286249 -0.24847491327514962 -0.5315976210566689 -1.0334105838510457 -0.679359924304091 -0.44965554547464837 -0.5099090705520521 1.8478846060510112 1.503569609478212 2.4265688038561377 -0.3635719020285832 -0.29473848796872537 1.2137123651530726 1.3636535417393751 2.4233626230304046 1.286849283621815 1.1531560255887614 0.9491040015127409 0.7940686238990612 -1.0457586138651487 -2.3193250019650318 -0.05741786512726452 -0.36208023776126375 0.533263629324436 0.32737156919175603 0.04372923955611361 0.0016074887863045033 -0.005158353958306347 0.036090023807744794 0.2684975216249269 -1.1406552185320777 -1.5805355736873312 1.9237018851885175 1.422629044068849 2.029149500779973 0.13741112287252177 -1.6922454560459403 -0.6580077699416439 2.3467689794548265 0.9198748669103727 2.2909549782137457 2.3424258934482225 2.0993993135351157 1.9958948381545853 -1.524615887964767 -3.1117286302786287 -3.322788788090259 -3.025548693067337 -1.9147466669744844 -1.3898829900554839 -0.5808620552142122 1.0143295578766975 0.3293026199136356 0.006098654245433324 0.00392716206931034 -0.013043005175957339 -0.24005298864143362 -0.14850966907354896 -3.326256116269718 -2.2954649788138535 2.4316631529208195 2.101060976832274 3.4968920955402476 5.852717076726171 -0.04670639798732428 0.8439325965885585 0.9434446841833118 0.0612171346951597 2.079257853938171 4.487572363065545 0.48110585968156466 -1.4297087958400487 -3.0125043639101317 -2.211585759894585 -3.6177585595451673 -2.301392562406224 -2.976552840770968 0.022758081778331347 -0.5146098306302136 1.0442785982229608 0.3354041754287553 0.012191331402518641 0.007927996934472766 0.004170207586297209 -0.2849238759976265 -0.9366883308563977 -4.718403111102596 -3.406355872684318 1.9057636930447044 4.348554709104704 3.992755716800218 8.190688774909269 8.384581002737814 6.589312432203441 4.012076666443012 4.034079659654329 4.404090909402344 1.6608965995824654 -1.222267203904752 -2.6344755753335636 -3.018452692153461 -0.13100693036608352 -0.14854302478538847 -1.1909311092706079 -2.2177852265261824 -0.3151460150663608 -0.04077317398965543 0.44496187969612094 0.41645818050127564 0.025059015964359003 -0.002777195406848123 0.00819227705365395 -0.2145950696517241 -1.2487606899302626 -3.8891642942719065 -2.6790899884323554 2.0274740355825545 3.3028086515943724 0.5283875148184161 3.9058731362449945 4.275658546865717 4.224357779964963 7.8776540709935325 6.437058267507575 2.3374218275223453 -1.7688472658114656 -1.8176924399411838 -0.9947135912047632 -1.4704100711972445 -3.414312414935502 -1.442104191160191 -1.0749123803167295 -2.4657021292873877 0.24562095579002102 -0.06357751756334891 0.16310277255210848 0.20150150758314214 0.03729245498207 0.004983837248045456 0.006000122301860583 -0.2725601652063768 -1.4947236448344283 -3.95246505251707 -3.528415077652293 0.28014044847313496 0.07068941952691342 -1.278846008762827 -0.3310315870285537 -1.2435766393806784 2.644820602220893 -2.753199214791573 0.8472746437762353 0.14777106001293885 1.2215339408557255 -0.11246264379254614 -1.7393067785197762 1.548968011888705 -0.3654007713210021 0.2977107054791607 -0.28207075449543306 1.3800503520102498 0.641323363625893 -0.4836151946202935 -0.11433114818464207 0.10296285511481021 0.03374652173509605 0.001949298240373919 0.002760891572261518 -0.08813578399247197 -1.2003693888827989 -2.4488926842693393 -2.5858783552363738 -1.8630545434054202 -0.3921263877117459 -2.2654284500738684 -0.6482331070434156 -1.712937625258886 -2.7560101224548874 -2.467504328355599 -2.5656218115718663 -0.5472271810509773 -1.338481425022751 1.362005833345011 1.625819764519837 0.29650321142292985 2.452944482355416 0.03492820259754234 1.5239951830586191 0.9266449666243113 -0.18125455144227498 -0.34403641634604176 0.009310561414542215 0.002804325997472431 0.0028236828806398333 0.007979869640172216 0.0067876490240715995 -0.15694826879210122 -0.2562920222072946 -1.6448713153189916 -1.4442980491853827 -0.4015819128004717 0.3102946357467264 -2.0099085229887823 1.0709216730357283 -1.7881951598797732 -1.1016371475261486 -0.22062974929764645 -2.0658624679095947 -1.1424946757304844 -2.442937590445747 -0.6112429610617088 0.24680974067797742 -1.8396280882140688 0.6858726124108072 0.3826557190910696 2.2012587297763453 1.0090980421960056 0.3800547753873178 -0.009779658245245593 0.6968151414797534 0.014074771587025548 0.009715978662109395 0.005620446913698785 0.007716935735781108 -0.07146968639102484 -0.10488266871045225 -0.14509116066397348 -0.8051481544914654 -2.446865314797681 0.923941038987275 -0.7812812916022569 -0.5184837685037669 0.28255591681914066 -0.25640919928675693 -1.6563438258671934 -1.0610925539901555 0.7331890696991883 -1.8379766166155433 -2.67774876698578 -0.6077097591840406 1.4427219476654234 -1.9516317398759901 0.8487526609110986 1.3273736316539673 0.22496258444670983 -0.13488147299815 0.7540058504872038 0.5453919599867885 0.006842186890917587 0.004592637005146457 7.233975440647078E-5 0.008833680259415723 -0.21625753469169282 -0.18725519224371248 -1.1568019532768339 -1.6192584205595433 -2.10173284029195 -1.2247226006471217 -0.6796590224420747 -0.8220969751052533 -2.3379537518940046 -1.858522314516365 -1.1208035021268221 1.5408234438198656 -0.7615617242725156 -0.4058854086491271 0.1378669434387928 -1.1861697428089377 -3.0180239287364397 -0.2680222081107978 0.6393654153466224 1.1299213550830578 0.806724998973161 0.105871722763568 0.13807016081745235 0.03358339658878837 0.0037480272356633765 0.008786247585989363 0.007193948200230445 0.008961967301256387 -0.035139149361536004 -0.2609478816673327 -0.9812411110020703 -2.1206888608856325 -2.0706445968740135 -2.0211547925230575 0.5907309541869151 -1.8380996952046427 -1.973731572685692 0.8118699975714921 -1.3022925364816478 -0.14127912800815007 -1.7854703518059318 -1.9791970950687887 1.1151201742824148 -0.258919202114496 0.6550433994097236 0.8660789435697982 1.110071320764072 1.352146614418002 0.1172086254688055 0.205804042636281 0.05187590902840862 0.024706917208153448 0.0031995660342952763 0.006315065933423209 0.004503604865450859 0.005452389096785919 0.0013264367229338324 0.008127039023899654 -0.492110235798168 -0.3010668246477757 -0.0409526845448857 -0.7345064387353459 -1.3336395879206238 -1.6774448814824041 -1.4781416552448365 -2.1874458924652114 -1.6127564989724827 -0.49716722974183636 -0.2553164499728175 -0.12739089590761174 -1.7191049219529975 -0.9357770319481112 -2.398455784292461 -1.2781294908632976 -0.0699495586304491 -0.010817047149662829 -0.2632595593176909 0.040895198882416786 0.0018632940301014289 0.007645350554854143 0.006051090030557795 0.00431510065902611 0.005334326621492621 0.005237130280366995 5.371996490015362E-4 0.005785838016459127 0.013436328385304988 0.031152924585144407 0.08398808226314979 0.11767264212451586 0.3052191120915854 0.3037290237017257 0.2236716579748957 -0.25730702538500905 0.06797530865019302 -1.057623614043624 -1.2139867695218898 -2.0204594295569405 -2.095307287734916 -0.6161798637072115 -0.9376915096045387 -1.0235556333474074 -0.5331012397544722 -0.13346566295533283 -0.08134942507126926 -0.01337405852005648 0.0013145902835165063 0.0018253975495131378 0.0017658040434842825 0.00924892070751445 0.005365166530668228 0.008743297589673685 0.004180523179975237 0.0049443812770533155 0.005103945637019084 0.005739359694742761 0.007712510160217572 -0.02420660237897644 -0.01791240381471557 -0.007995542134697024 -0.0501534591575279 -0.07054031787966332 -0.1959170974422363 -0.2353138641636206 -0.06628684663794153 -0.011004241150977697 -0.0523368432963461 -0.15529274192835454 -0.23493814801007004 -0.20944758684070625 -0.22465138969899806 -0.011403366849429226 -0.006716208147848956 0.0010296286951597359 0.001976426529379143 0.008454761961320435 0.008648720916461296 0.002142752215078716 , 0.004511668512960568 0.0060778132729390685 0.00180802149698309 0.007404418061414739 0.007460785031017918 0.0016122759259875508 0.002426469253411667 0.005576158957819294 0.008046462328427362 0.0015217039769945863 0.008562440033067725 0.004090865243547713 0.016748385264636127 0.023396270460889858 0.004595920765170138 0.005421735986455576 0.002327177542062773 0.005169738044723855 0.0020599886178073756 0.009475574338172973 0.0037596901323282417 0.0024559547088611557 0.0018153995383571153 0.006490787585386192 0.002534732787791686 6.296350810922236E-4 0.002669147432828817 0.0016279627925732266 0.005605879900026097 0.007390558304438819 0.0011072511682302321 9.505398292030454E-5 0.005962694625697714 0.002721675030381412 0.09548570288865131 0.17402902823347305 0.12134797587262641 0.06236030026832498 0.11812687512894786 0.13396400968637792 0.21592933266859676 0.25938252514053417 -1.0692096546071017 0.05545794489241204 0.08412598591790026 0.03852094545201509 0.04489099323786732 0.31621048848298033 0.20659645658415512 0.09233074096972801 0.05896959137630249 0.019838801955777845 0.004741640577745188 0.006750749642433899 8.002152645088601E-4 0.006273860483398891 0.004431052529350014 0.0034725853534125673 0.0052686435007932575 0.009016683579143099 0.00392447440402162 0.009772904290046696 0.075166122527893 0.7355133500111888 0.7794678668632962 0.7893566417228663 1.0130802984350036 1.13441000424263 1.3767748100152721 1.3224084636804991 0.23651491027672625 1.618192417849064 1.2257944758289283 1.2487048335466422 0.98030004234147 -0.40741342723689167 0.35283782231407107 0.5991278001182903 0.3277136401937743 0.2671395721650719 0.02821496784938185 0.0015058434598792267 0.009414723124330749 0.0076348427106393835 0.0034984153590904986 0.00898411752791784 0.008719259678136691 0.037169578552143825 0.04083118940007075 0.36743683874601835 1.2638784480294276 2.4315958341743227 3.2034248348885193 2.672659444995851 2.185290003970568 3.2030094709736314 3.140589686538607 3.6153727092716976 1.9127073502120588 0.56459164200094 0.01386894967242603 -1.1674351420072593 -1.7149839010276202 -2.1933866253184515 -0.74892325017572 -0.8668034933051787 -0.7149723999176754 0.884493361596437 0.6787979646395099 -0.01624034271209775 0.005297565134110708 0.0025540702736388497 0.004463180449791181 0.00920648730991048 0.0012530550741147275 0.018667923916541086 -0.020838754648738606 1.2201027510231124 1.819381295698448 1.7763351093852036 1.2620495968976304 2.05628807029384 2.9337403308720083 0.38622074257644495 -1.0546972778072379 -1.3057033928904078 1.918772143184771 -0.8158112636019742 -0.7555711215915074 -0.8811215830589906 0.049504285754254806 0.18614063740126063 0.7181967147062979 -0.11585477510012471 -0.10918303576288702 0.06002953914370197 -1.4595388550448856 -0.2815838615253366 -0.05889536554058266 -0.029103238765837692 0.0012741984518370552 0.002132666447509215 0.0211622330581965 0.2760716631446109 0.19210661974723334 0.7512989344079883 1.0803935748263627 0.724182009120764 -0.11134347728146163 -0.3056194457317663 0.3442330434943061 -2.1103858325817355 -3.4210246653684444 0.3275112460962025 0.22556215513903333 1.9362437176785519 0.045606075569371136 0.8976434304839351 0.8784556790919031 2.3695062631363117 2.350506183624165 1.3782096294324309 -0.41530619608352726 1.1214639369083368 0.057815186383676054 -0.6733735340127321 -0.3326440458889875 -0.04430282689291449 0.008036456693959918 0.009884600544456933 0.040901395315794994 0.776061319031053 -0.003381954312187859 -0.4759395560320425 0.19448340378733353 -0.12421655162357668 -1.622695442581374 -0.8321930575074022 -0.49387527654311475 -0.2728041651149767 -0.3891331721317808 -0.8595195070757172 -2.1606040723287587 -0.7976312223954808 -0.3971479034941632 -3.404502645969951 -1.4275342558276227 -0.8916601907740772 0.43344827038094497 -0.17127700294926085 -0.6525996484614478 -0.8037948164099099 -0.5652576662927891 -0.06988092049856041 -0.13768568402600337 0.07589052008659111 0.0018750655714948976 0.006440258324086523 -0.062024903743619964 -0.8538999474935803 -0.921185872251 -0.6604116064633642 0.5725076754441178 -0.5318313885756885 -1.0271275328227512 -1.3891719718927227 2.1376257070015665 1.0433128915640226 0.9781531107342558 -2.1814877806395447 -0.7633527278359279 -0.8968775629280066 -3.651771504154345 -3.298968082041518 -1.9875984370891857 -0.7831115250116847 -2.646085876592081 -1.797144711507122 -2.6335709836194603 -3.1698315911075046 -0.09661306241248716 0.2803893190485874 -0.012647869592748552 -0.01996021260844344 0.006372001914845046 0.024124791815864348 -0.5767072546741611 -1.360099622783424 -1.6484368358909085 -1.1569479184295393 -0.2105670385335893 -1.021913858973489 -0.17619804100806927 0.07183811803910152 -1.2919529207522646 -0.44032830196878037 -3.770180485736585 -0.23939059975525864 -3.259488395219304 -2.382932502022762 -3.387965403534068 0.57661388035114 -3.7923734302606635 -3.4057848804613884 -2.4859222863118875 0.010786380952669912 -3.0327270790474388 -5.061455242028824 -3.064952485464772 -0.8834498014787839 -0.1641370590588311 -0.07921404250832224 0.004192747204437198 -0.17464675053560047 -0.9077114389538196 -1.5972371629155053 -1.2718208764803698 0.3640206069689038 -2.165713532287345 -1.992268208267349 -0.43672718078719236 -3.166177582378225 -1.3907643814668191 0.8401619622224095 1.4034754623193029 -0.5104434600449549 1.9914646282777397 1.722894677590232 -0.27492157100321546 -3.293818108610023 -4.097047403446042 -4.117374844119985 -1.7405595561678624 -0.753344679200062 -2.3141129759968075 -3.5947251360307457 -3.66646259928082 -2.023781175617218 -0.7777899393699175 -0.004836073641398969 0.008072322141519005 -0.0053417986905434835 -0.45486782380339535 -0.6542884391909031 -1.0608844213983888 1.420426703313553 -1.0204037749002488 0.21755312967867071 1.467507416396296 -1.5815450635504686 -1.0097382567660007 1.484796869162262 0.5600079616685187 3.3079380785432617 1.0978862604167123 -0.0789010774758166 -0.5170793619929849 -2.0526046626075116 -2.3320106870413935 -2.9820315260567987 -2.7726124149310425 -0.9993647185592511 -2.435536026845559 -2.1217978635704147 -1.9271145361084903 -2.2586989004601827 -0.77979023030346 -0.10212954525495278 0.003745391269166389 -0.2267521884497159 -0.4824140866726955 -1.0623815515321897 -1.6275509504333763 0.7445122213930004 -0.09583933785806864 0.5166996011038942 -0.5647623685442336 -0.23631907224847543 -1.3622937292476207 -1.614027961516042 -0.7007684180633461 2.0147389895827925 0.3202349120444507 -1.671723336314945 0.2601694946352495 -2.368914084406317 0.1812023588162066 0.13061597250659437 -2.328726278238563 0.782483368305793 0.126051383492216 0.714329420894572 0.8540127912678479 -0.8330712128756254 -1.9233793449416683 -0.027300176300107285 0.007401988089418148 -0.40657111543927843 -0.4777869608135676 -0.08679608414842574 -0.025537317785633222 1.5352522515214757 1.386307628549197 -1.9649706103709812 0.04021734277111373 -1.009405352013263 -2.3147697872329194 -3.1141341157149727 -3.4323080917711826 -1.1080127722027588 0.8427332196628093 1.2503578441203376 1.9146640454736965 -1.1550286848534033 1.3768492711065923 -1.6865981776898644 0.4092680644819769 1.6970790339304482 0.09309303638421448 -0.335901805457733 0.19812851222854044 -0.7610470801276614 -1.6815048779179997 0.08733923830049774 0.007943545859394715 -0.04527177980905923 -0.08432776500484773 0.3800406965229571 0.45151465745166885 -0.0037955567679700884 -1.9349766951836034 -2.931978026981401 -2.582692916403082 -2.3645108783334856 -1.6021630922826906 -1.7081590991778524 -3.539826306770762 0.14336267956322427 1.6865461323648134 0.8845668121136587 0.7244687096936606 -1.3711989059151954 -1.0848659287566202 -0.9969870438881743 -0.2204006906178125 0.5836852420812286 -0.5477446730227916 1.3526865129471282 1.4988183910392539 -0.0833208997267538 0.2969848419687671 0.2849935438975791 0.008868571436516483 -5.791168918031948E-4 0.036393374414354016 0.4507288485487583 -2.19248785975087 -2.8005887282659483 -2.7642396639734095 -1.3398117353775632 -2.586694026449116 -3.1077063889067857 0.21802992215720665 1.8636371624144326 -1.1102213149909517 -0.7314013687795033 1.4185003138979768 -0.6177987849206197 0.8798667904959125 -1.7820349674351184 -0.2949036877867257 -4.157119404088609 1.4857252994149934 1.511355261210291 1.6688708338460967 0.9651144089204886 0.449428778912362 0.965385153930632 1.0732287810180097 0.03452657667865249 0.009128179831386233 0.0036383160360827726 0.18685392174087354 -0.23979954280501076 -1.7483777271901852 -4.103776729170727 -1.6804469121498717 0.27898724097041605 -2.2060830110710885 -0.5022379941710664 -1.2088423946501503 -0.8248227167975292 -0.13207545905632156 3.7341977504622106 1.9568303690347588 -0.0402110239514656 1.2791921867886542 -0.6293898000634631 0.01791748342402763 2.1195081654097843 0.5109576366357564 1.6305331756114065 0.9059836379616993 1.4228204391237373 0.8134323168999937 2.3941864023934603 0.5212395314061232 0.06212562881048861 0.0029902869418368247 0.0011931131233254109 0.09797206520297119 -0.40224699660929103 -0.40533083791297136 -1.2720078230317347 0.6002136538986947 0.3129480088261061 -1.951864532931482 0.514394479416568 0.04991824714161642 0.6592815799310291 -0.8547363154972805 2.2234474532475437 3.014153165237891 -1.083577919812404 -0.46585146005367134 -2.400165389114819 -0.367066899995457 1.716263912009888 -0.5844288807263947 0.02802775506807441 0.09951546258545431 -0.9661982441831082 1.8362698754344906 1.3609065072922168 0.81751859767517 0.05386385541806387 0.003690721897570616 0.0039963057368544355 0.006882924378299379 -0.4019627480811528 -1.4613895528623564 -0.8819313138638071 0.7121886612499962 0.04937221279086929 2.0772369018209798 0.4120872544087811 0.8570696141301555 1.4834462731770017 -1.2045737552998987 -1.7523213313898438 0.35964033533644885 -0.7405948861982529 -1.9130687121707286 0.9478222039420163 2.185869768262833 0.8486216241228189 2.178506819927017 0.012575144382426585 -0.5936224682603919 -1.7384807750614937 0.006216980264282964 1.187872886181201 0.3368730517331904 0.1974485607472049 0.0027041820765048444 0.003517075269162338 -0.021416607778424947 -0.25202108220745983 -0.948010381347852 1.3186324001066576 -0.27486387474564367 -0.18792447173591004 0.9933712976502078 1.6662491370710972 -0.31071581782245067 0.8144897128759157 2.0359818462471204 -0.21624006237452706 2.525778551925409 2.1456741172925726 -0.05876137434485784 3.057322946863216 0.7611448206844907 -0.5809781347672949 0.4709091409255257 -0.752905542613253 1.0383274441163484 1.5001701212702703 -0.3343807684745905 1.107071594724445 -0.0789037574371232 -0.05671468984984442 0.009789578228867809 -0.007704308372332917 -0.012942611607758892 0.06610434707165463 0.07630222816238483 0.8864462168503126 -0.25342750045549095 -0.757445528325516 1.6828712811206914 3.8934952229298845 2.6987560758355222 3.642672151797298 3.4051412321105046 4.650269338268096 -0.2289810966731033 2.0094798100781683 2.300135243113574 1.6429053489379757 0.5628940102967369 3.498570723840774 2.9102617162160525 -1.7725981097611714 0.3311544191398216 1.6568011256373363 -0.17422165040307144 0.732436133750662 0.274416827369908 0.017116338358356978 0.006385264424185183 -0.02448259151165018 0.14274247840820098 0.28312579990237047 1.2452170431929799 0.1882994708837746 -0.042064025129140016 2.788028921338001 3.6489429647832563 3.2611214642141992 1.7640434352546401 1.4481698680538388 3.736895595857216 1.4235741412873255 0.558983953210723 -0.9399790452230528 0.7411236360294029 -1.8219518582974426 2.1835375985633467 2.7666838435047727 1.0040596730446654 -1.1003338248309165 -0.6639572677073476 2.6616925539261707 1.973083372124078 0.7533491619748484 0.1215992419113872 0.008607247061851613 0.007259781552401658 0.0036857623077275075 0.28020622771390563 0.565036494734781 1.1638091410042792 0.5694899857616128 0.8145623957502078 2.046836282130731 3.9398636742184583 1.3714620849723713 4.749554991664862 1.7163120443587765 1.4006390351789462 1.2050711334264754 1.9607292967535173 1.0351669985559013 -0.039841379704685945 2.248698149578499 0.7018003195650128 1.0216689063619817 0.7776060439460813 -2.229781931267943 -0.38963443410746895 0.9679039166088492 0.492137010095401 0.30342805974022036 -0.07698369387233886 0.006090421940117697 7.598470251288687E-4 9.653286296320836E-4 0.12524913169022858 0.6091379423971444 0.8455486837166816 0.6206785420558226 1.0616434865469917 0.7956173941283335 -0.8659631583049006 -1.2847351027189442 0.8512721100805487 0.8140819917963054 0.5285743580165352 0.1191930462262088 1.3526316963858527 2.925043717031386 0.43721738985359276 1.5699524823043478 -0.8671678636950169 1.785632155765238 2.5050381872053697 -1.4760328748534173 -1.4172998782923267 0.6128464758741605 0.5166684273521076 0.43969475459175983 -0.04201559313107264 0.0021550975079582496 0.004063720287478538 0.004927386954686747 0.04696732797697604 0.22324642576027146 -0.3050566457270592 -0.030686517184585003 1.7413229693899575 -0.42577637134748325 -0.8235412031768301 -1.203962894667584 -4.790144571220789 -2.6987788166708016 -2.4734060682974164 -2.5189772663077994 -0.5482942495246945 1.2236390529982353 -2.35744377324697 -1.4613460558463254 -1.5883247053817833 -1.9590477438559224 -0.7870750033291516 -1.3314231453344407 -0.026484749764812736 0.24755681843279723 0.5712914717550424 0.6109742880339561 0.054535078141010725 0.007358143636455532 0.009565815537606999 2.786211006500139E-4 -0.006932490526847773 -0.09922385048362245 -0.6730203379975512 -1.0429486845437406 -0.41633898901891203 -0.6298310624538166 -1.5447392268240132 -0.17245240792938688 -1.1186114908461495 -3.5675444063041004 -1.3380697310750551 -2.7582510995110483 -3.5834831569887102 -2.333885968707248 -2.094432680603221 -2.072961991168213 -1.1459234208444722 -0.7362195479063129 0.3633633234511144 0.543137293521485 0.26069310273797613 0.19241861509968294 0.3914923433664925 0.42216584834355797 0.025612072004197062 0.002339292338597836 0.003045471826572762 0.007555500456489215 0.004447228739692536 -0.013347012696955056 -0.48091440020274184 -0.2760100834678531 -0.2833711966005592 -0.33890305455454206 -0.7370144580798281 -1.3323884502428744 -0.873037690807214 -0.7973733203351041 0.07007356052305048 -1.1799489600712554 -1.6786971197705156 -2.260413695131019 -1.5472113870884372 -0.9379161036200032 -0.9083446535318841 -0.9797498907100127 -0.029746534061877494 0.10227225050771645 -0.017856997917266235 -0.031554104171289774 -0.0021006947445220358 0.011529573694385174 0.010826690105913578 0.005770280867931073 0.002655932444684951 0.007483380293079668 0.005718328023488944 0.003070902249518473 0.007443350029289737 -0.011109727245548498 -0.03286635553805365 -0.05828023453961782 -0.13771291446279463 -0.4124902467142304 -0.1501589759226109 -0.08653780870204476 -0.1534039077337532 -0.29566689403967705 -0.7398606256875361 -0.6897354557812144 -0.21408743314527232 -0.07957672868419627 -0.6047642913491518 -0.968813017074477 -0.43487727548645494 -9.741764845570978E-4 0.001756925192157385 -0.00253096153382012 0.0035433570427953866 0.006763389784188835 0.0030710815303079987 0.004450705527259502 0.002019560860341555 0.0048022139500317204 0.0076552629806762385 0.00244747554375219 0.00716864688774793 0.0026715642310407447 7.613843600781536E-4 3.776476804111118E-4 0.0022205198258603617 0.00619322524211693 -0.009243959550529209 -0.004832100274910514 -0.028300347030428757 -0.09999841686516311 -0.00600075204283004 -0.001806311019596744 0.002941959201042761 0.004447297860494603 -0.09762942151834932 -0.41127367161414846 -0.1482660843469388 0.004813992296295435 0.00417330659982503 0.009443151897693023 0.0021290766800695295 2.529395925025302E-4 0.0014170492789435363 7.88342614535541E-4 , 1.4773720159719561E-4 0.00291393494789408 0.00454836595416914 0.004220355961084126 0.007324041419661844 0.003040535023137144 0.003829211815248743 0.009518865140186634 0.004130550732150117 0.008248461499045933 0.0024541391678969127 0.006012789837318937 -0.013933802605800495 -0.028497870688316485 0.0025230020236768386 0.001968748021511014 1.9121766240073223E-4 3.999553851486426E-4 0.0017141854863462203 9.323734961101927E-4 0.004939616245069645 6.416873783877086E-4 0.006688404410388538 0.009108010071089145 7.487351588955016E-4 0.004330113086488772 0.007920755673876961 2.717459639844544E-4 0.009040206452885663 0.00427180547397197 0.003612582582186912 0.0024558587005575417 0.005483112781814045 0.0072515638057654465 -0.004733901524526239 -0.012945625577298786 -0.08732707260432132 -0.01525729153124985 -0.0023827366168302846 -0.0044802743085344664 -0.05460492390680971 -0.08262034656753807 0.17897442895890392 0.5772857448396885 0.23504466943158905 0.11662091721402815 0.008052396875272016 0.00829137141736696 -0.0019366800233362516 0.0022548046716805792 0.0020498135982527726 0.002318195297583657 0.007247392668948565 8.427847981909808E-4 0.001552425530014151 0.005364288038173609 0.004427442018630489 0.006904495878518428 0.00480139825824375 0.008206182269911919 0.0031880538290670886 8.637562256268736E-4 0.0014958181007091592 -0.31903619045997283 -0.6502731875207646 -1.0814757694155688 -1.050837534546592 -1.3082623336832786 -0.8810776186349857 -1.7755730886262104 -1.342991683355676 -0.21647094657961025 -1.4710711316480154 -1.7447522551225823 -0.797773875320235 -0.825395436651517 -0.8890003125538162 -0.4730424900656021 -0.15352834038720803 -0.1385536070826356 -0.10253474239615308 0.006073844834438551 0.009899376774563595 0.0034536143605345595 0.004191852647143367 0.00505554302347206 0.009960481293142366 -0.007744546042024611 0.007176120598602725 -6.05127726685246E-5 0.004494550013755327 -0.4087165309484002 -1.274406934630999 -2.409875370994324 -1.5133615247771688 -1.2202258197928089 0.8670091437281414 0.7296529006932644 -0.07108277531060879 0.8276868926690019 0.7291420159650953 1.0946253846266496 1.467031260563911 0.3840390579504334 1.5387665016823215 1.4832758616607429 1.3809394899021625 -0.08633894545118588 -0.10769855292147691 0.11222875309914256 -0.017056504901532064 0.0048596241948616545 0.0027634232757073585 0.0016965549037663294 0.01611200642795746 0.05314120921657044 0.15982067498396443 1.0468021854876943 1.6482268115957053 1.3095621923973286 0.48873487518556546 -0.6335668611229183 0.4551653973469658 1.7438531700747157 1.4289908735411603 0.07263007482087705 1.9858975140716526 2.0474406207997244 -0.18428722725277433 0.12397853874214829 1.7971249250876975 1.5768693273038394 -0.07413202907956419 2.369224116146418 1.7460867827484685 -1.1637464892173046 2.218569029006037 1.2131313400341137 0.05114471968674843 -0.031450592089121744 0.008232652475951906 0.002616851488497559 0.007996227845983748 0.41591198105670585 0.8387241101518574 2.652213833689937 2.235696873694077 2.1678816970223926 -0.7193421000639211 -0.3116009367143748 -3.7534491040004663 -0.22396254604535107 0.6562866576801656 -1.0328951942434264 -2.498271785302385 -0.5465984048038637 1.372093085974926 0.7557060989863892 -1.4127640888879751 1.38631389569784 0.4605128785258618 -0.11643868404600417 1.7140493093978313 0.7153849818065187 0.956394730028872 1.0233465766850476 0.2115431272320965 0.021179475977446075 0.002058408644819576 0.006007842844561366 -0.019873150674682625 0.8423092426940527 1.282009053558163 3.336543612380978 1.5666693310829638 -0.4025797362757171 1.1781414441599287 2.269841057053652 -0.4220085490997392 1.9152127897534796 0.632563290666314 0.11084446060307687 1.5060980302525269 -0.5144803182145553 0.38406117808936324 -0.24442141533605066 0.40579669022362774 0.9450673733450977 0.5836129241167299 0.6018613885469902 1.7774652583478199 2.703079335761285 2.8623849742660803 1.8400627177184394 0.923409477796949 0.1244978606264412 0.008960133941794159 0.0069802695403673835 -0.4612464392402503 0.6497797121014045 0.9683497203761928 2.12559443277175 -0.9510127735957647 0.3649558540855763 0.3008785869060916 0.5113482487050991 2.2248060365170588 -1.8946341240679294 2.278148016077622 -1.342124724870273 -1.0257830582286025 1.7593059273869265 2.2615976408935907 1.3874397896855908 0.19573452524161128 0.9886031663823734 2.568551045622218 0.5152183770068076 -0.26590933140009393 2.0557756968063967 4.013459120342052 2.417069676120788 0.7705304324190738 0.040551696834171126 0.007527338141266743 -0.03604348836846806 -0.4337294576715121 0.6688094527258849 1.37631988611011 0.31358762503897486 2.408986963763823 2.3912952753666143 0.4747881805383215 -0.5897763918089871 -0.3105852973560869 1.069048700298031 4.248833798263433 -0.021806504280672087 -0.11449052023192231 -0.002367991755134968 -1.7230193042622013 -1.3543762222505837 1.9700865252458033 2.523486092869777 1.8068402041134188 2.2549748697812046 1.1151344720510747 1.037236247858468 4.066178543104907 3.1855776897404424 0.8571136215015142 0.14296471120402243 0.009710540936979454 0.008502673159036757 0.7534794424419317 1.0217616300825934 0.9954996178672596 -0.05878252023952611 1.2738721689559593 1.47091054172965 2.1758762915887884 0.5110410248785451 -0.981473512018106 -0.8410155036509152 -1.2432816920673488 1.0256729758576755 -1.498099319885305 -1.5827920189526126 -1.35623155887284 -0.33833503125389125 -0.5377393466889526 0.6859879998970043 -0.25656187893050064 0.4990155711552779 3.2132881377874964 2.143472257333333 4.400233174008557 3.5698422516385535 1.215615751583317 0.07414251693801406 0.003411556313459397 0.007629099814664649 0.5110347912091011 0.6449673348728903 -0.14924396509160207 0.38272134535983365 -1.7937635973727144 1.4756198436381087 2.920177222221046 1.50573673303853 0.989015586033158 0.5287259080743645 0.279775005618573 2.192651453741778 -0.19343292151668648 1.9785489085281343 0.6828465658148425 -0.23848461116620404 -1.3683321493299643 -1.0780811929342267 -0.25859540221760324 0.05006894518616042 1.4105834290191157 1.4143747267250977 4.089557742507404 4.455864125919042 1.037190355280199 0.20228045411218037 0.004363571440314508 -6.570498711999262E-4 0.02163943283784386 0.7046465432796833 -0.8766728190877798 -1.275095100849336 -2.070835655672696 1.868509547975457 0.8642368826722151 0.7204873916862615 -0.44478799026421484 0.25886381924065416 1.711644905341245 4.740237993824146 6.928168156409242 6.236387509000922 3.4215520897407457 3.0783125598771206 0.525918305449519 -2.493927904891917 1.1265873121928547 -0.31170218973751157 -1.5251050224902638 1.9498717093157658 3.129702267699192 2.7616268083922177 0.8772339898337912 0.09738509067986645 0.003752624997611214 0.0045596059969775496 0.004266180200819924 0.5588752995943171 -0.5649552247631574 0.26191056026767046 0.8202094839342705 2.1382238937508924 -0.9540336447909189 0.5210070188678164 1.5910838436743016 3.5388167989357115 1.7223123560669968 1.7684876415080766 4.860150604034834 4.999397299852883 2.020252421654725 0.556811026862214 3.445909435615159 -1.601405379160814 1.4256023218832141 -0.47462837314757733 -2.8666667850681136 0.024205512140945653 -0.6910145202619346 0.6022984770795727 0.2983181159732751 0.08833020344636015 1.0102406745376551E-4 0.002621591622472617 0.00447358147237805 0.7268880061562584 -0.2409949297389621 -1.1942617464412233 -0.1979702861124715 -0.11243778401722504 1.6780432538069951 2.006411387364504 0.5496889684127619 1.9875775133825384 2.1899867155940616 0.816231259339892 1.74651918273204 3.2471819934957353 2.2764301053227203 3.9491513948437316 1.9817558437980032 3.4269996192447976 2.9062109870946093 0.48316152846111976 -3.4808437207108693 -1.128542384284703 -1.5949904042734453 -0.3471945354182358 0.5064072318041583 0.12045874336523454 0.008847761595070173 0.00653960252822221 0.0021279227581252106 0.28520409547666326 0.3456988701233499 -2.1310016116622865 -6.260548843230412 -3.715349809815184 -0.9997521247173411 0.5626268903581401 0.8107552722207452 -1.594742203705289 0.8774058898311117 1.4514497646446387 1.1973435409169422 3.143056716962662 1.9894219799248674 2.9671911974044836 0.15912964301252244 0.5956188782402466 1.0312230640463482 -0.4386656272178368 -0.8843381781628726 -2.1297245506017237 -2.5827826970963583 -1.5577464963088181 -0.8038100562358204 -0.013595455829418755 0.007212672674966826 0.004152385693942216 0.044772009874890197 0.2568964850516081 -0.7914191728884914 -2.92482963043266 -6.057015189938686 -7.4789549011863246 -5.913821880354668 -2.131604957961093 0.5558967952857985 -1.4149364926409884 -0.7780828985935384 1.0809698397616017 -0.17903721616732723 1.6533050950627697 0.9545108624039793 0.011923894860674107 1.0767558198760154 0.18160119303849853 -0.901628838547829 -1.6837519053360386 2.9815717092179135 1.1286404614026295 -1.3705344213390225 -1.5072925414202838 -1.019292528030151 -0.10317339877751475 0.00437990867839827 0.011891385020792797 0.05735175345333115 0.2432085432628214 0.21550793565178358 0.1722781487304995 -1.2563575915861684 -5.33903397339192 -4.573286446863536 -2.9944591056879823 -2.6711382611819543 -2.551745011635992 1.5001610961041794 3.0680734676860726 1.1197216665854106 0.935534461478555 -0.36817232020437174 -1.57153973332746 -0.3247170285338233 -2.014821786805612 -0.5911087457658917 1.0433256311066377 1.0838061068897868 0.07010524903187018 -0.3382281176884914 -2.7793396718139944 -1.6011220834806026 -0.25510487854139613 4.4138977305227425E-4 5.034443178540563E-4 -0.47420635901204305 -0.2972468673652957 1.921178407434829 0.26818784358863884 -1.429124113274876 -1.5590594215128595 -2.6934295163520408 -3.4327036586030752 -5.32680246816495 -4.821273272376993 -1.2472926503560227 -0.27146592372159567 -0.35699736845237734 -2.679403912906255 1.9704552419017862 -0.4914935816484034 -0.8586595224395447 1.207661387585417 -1.574360442932148 0.8257510530798011 -2.2138422081248392 -0.877927299113369 -3.675285023198015 -4.791465038175633 -1.8032264301128251 -0.2930283297495833 0.007149087588634792 0.0035855188489667795 -0.2660358492259693 0.09852121480002272 0.02360080417835314 -0.5943193450454345 -0.05996384948233134 -0.9407017556655778 -1.920903152049045 -1.3167601072716357 -4.751139176793617 -5.15796015231849 -4.902963147509367 -2.9784860473109713 -0.05116780646049016 0.41048383436458136 -2.5689907079202348 -1.0855922794861772 -0.5691874432256779 -2.1014047576451005 0.010226709885007438 -0.2871711293446691 -1.988003060799226 -0.21763204336751732 -4.474500962178239 -1.9834095354970895 -0.05496254964908085 0.003921735886181346 0.0077956527613451876 0.0053814479910675485 -0.21467071721603864 -0.3174108170060613 -1.4168538009202636 1.0030634871558841 -0.06375710601340907 0.3407539296814565 -1.6242854442733525 -1.3828928173497985 -0.9533309959641072 -2.759103107085199 -0.5638651411610827 -0.2834747287777787 -0.7425652832296391 -1.1794947017924549 -0.7498212313770278 -0.725072624269639 0.4016786293919818 -1.6060382712797472 0.01681278099471578 -1.4622706374373537 0.9783634883070286 -1.204115432795461 -3.4040133728947395 -0.5482464839410907 -0.24596998301909204 0.0036511293843164818 0.0021556766925331593 0.009117530844171568 -0.32256128198959205 -0.40036823293706514 -1.8359637408204514 -1.586848796689622 2.044985716940588 -1.7596322956257286 -1.7793085491000349 -2.850811153465035 -1.6676875408639016 -4.608733944176268 -0.26393775603495606 -1.28466033398749 -2.610074461398705 -1.6133002033130301 -2.1123955074035234 1.4878252516909125 -1.2336585428756548 -0.15442650749977346 -0.2082906164389266 -1.3131005601768524 -0.5930842177365848 -4.99660012099031 -3.1817493822606893 -0.505983354307518 -0.16482663488369503 0.002747610689176787 0.005788856349026673 0.005612007546935575 -0.17922593251721955 -0.3831446510921698 0.4357356040206545 -3.4316626770393532 -1.1134610897503363 0.1600117861946787 0.33448676656338316 -0.9838410533770626 -2.2686177257571476 -2.456260903423376 0.1515747048517254 0.010830941140474728 -0.5200206710946528 -0.6778367891029375 -1.6227549394376795 -1.0379379937806887 -1.4164313271626534 -3.169549159126152 -1.11080768396053 -1.8672970091251195 -3.6152818780998426 -4.706952898252425 -2.376356796763782 -0.5226635212016514 -0.09651923879062436 0.009603277107739807 0.0013515794333397297 0.005968189683485996 -0.35836744403917076 -0.6745304670013447 1.3513853167122192 -2.3202340637934964 -0.4074220086815698 -0.34567701519760763 -0.35297946332305363 -1.3600561255570276 -0.38457819186211767 -0.976095152637315 -2.050536242619668 -0.5167792394452746 1.8713818286727513 1.5091264299718548 -0.6176384421228174 0.7621217610546811 -3.0404605391484454 -0.09259431529513244 -3.6318169444078294 -2.8690653768545427 -0.41848310701780134 -4.1359817439884115 -3.170479537024934 -1.3481523651670058 -0.0021981235956140387 0.004894982751321002 0.002217309011521621 0.0010653489313601238 -0.07904337218739174 0.19752464495243438 1.8851315749187245 -1.0448074005146848 -1.6040020636214176 -0.670180435504618 0.2805364586588037 0.4093881814912458 -2.0645613480481306 -2.370114667014622 0.45017338382789834 1.0042512901636038 0.0471455454483132 0.7797486791157665 0.3319891866602672 1.7840077474020797 -0.05983617790380138 -0.12784558815349317 0.6941558140129994 -2.1251004016014545 -3.4876224967942715 -3.233580863961599 -2.656460639511543 -0.8755342737533472 -0.0038947907710700823 0.004834139690209832 0.006283778363005723 0.006669962154602986 0.11509641698280618 0.8865552233718277 1.763435010361401 2.4995433608254123 3.3420885845726263 1.2277560787401498 0.19060812421587245 0.7733451092936162 3.1222981669750975 1.8812299398794976 0.31229640771872025 3.4424912819121443 2.6845685072911376 3.5060506251546686 3.4044598368858043 3.7752911397545135 1.3721360212055853 2.2347552652518545 0.38042441577411373 -2.0765034185826323 -2.3142191708826596 -1.015339043293852 -0.5778945395289407 -0.12269604988922735 0.004692952650400238 0.004455061292473419 4.900381573450297E-5 0.0036344515721041214 1.610176766189722E-4 0.29969978307537 0.2966207347071132 0.6134536167896264 1.4817349972872482 3.1104237649293127 3.960947048565751 3.971258153413674 3.838075914746297 4.933601727765078 3.9936723425340195 3.1529743877222836 2.8756191404915086 4.027719857450231 3.0469116506706553 2.9404675563553235 3.210815710312558 2.5481215130922514 0.4138451427517444 -0.9814372877490819 -0.6849373577468986 -0.21279659689097022 -0.08751408351025289 0.0015856350260009002 0.004332503910033147 0.006387698331491525 0.009857727228868633 9.174539240542945E-4 0.007145979753224865 0.004102137604712446 0.03591520687414488 0.08213712218530374 0.0726268070092531 0.1252219682062967 0.4618809452607938 1.4235299671797401 0.37129225394226256 0.40351203474121405 0.06355959577867676 0.5861873522852292 0.8773032105688674 1.4153499167399046 1.1721868596329765 1.060023750621483 1.163173587016379 0.6575983143403775 0.19048461179330517 0.00406036809175971 0.05579777747940509 0.022272420890133527 0.001021731448782405 0.008910223428645649 0.0017569814964725795 0.009217681737631182 0.008881910426725625 0.008329173341074352 0.0013974596779574144 0.004286091459531189 0.009867697473073629 0.008317450862342809 0.0011172020244874143 -0.03693525156498428 -0.03034519816683659 0.0033617130275828836 0.03388318694508945 0.21286600304102815 0.22231303740858874 0.07366390786100797 0.15743174487983347 0.1956780924818229 0.21595181655674237 0.306801726104031 0.44193286122777875 -0.1085161220279041 0.00756974457500788 -0.012905728192687912 0.03251223418033528 0.013472879658552378 0.00432250232382221 0.0015047362175229795 0.005564137114358519 0.008223781854637907 , 0.004596440695656511 0.00740980355977763 0.009121136517906338 0.0017666660000435197 0.009086565478074219 1.4410230642280863E-4 0.008095479874724802 9.296002206338084E-4 0.0029984343126505464 9.927688678747681E-4 0.009281684639224887 0.002932640082749457 0.0072111218023994325 3.321464820120137E-4 0.00627516343876502 0.001075679733972567 0.008890605265899347 0.007998942889276089 0.001614972748698653 0.007922233457346405 0.007926321248563217 0.005950143075470771 0.004402495930175847 0.004199087902227492 0.006766797705496833 0.004733661152708121 0.009386705806272686 0.009659548057373221 0.0024804317425209835 0.0035198882298681958 0.006452727388509406 0.0010987104936066273 0.009509352168237442 0.005326028390892781 0.007565995660871073 0.007285242722527846 0.008570526211652767 0.002716709246812133 0.0028283809125465376 0.009504039066847228 0.002639103588945924 0.014596830870351534 -0.1839909259629529 -0.31909979735237926 -0.10415921590379229 -0.004411918602026049 0.003900116049878802 0.0035579980276540567 0.008331537373289715 0.007508463245001073 0.002444170983280325 0.0027574782691739278 0.006563170688495094 0.006570173676434745 0.0015410152968654833 0.004992771665206634 0.007306117733871357 0.00887132022193364 1.4947928247191735E-4 0.009841923203378301 0.003394166609303011 0.0031631852954575176 1.2121477339790619E-4 0.06805715630420907 -0.1166894872178047 -0.4203017874477309 -0.013688851031953999 0.3542787446238249 0.3024943983543865 0.5630080738007924 0.09496063368841379 -0.29685791609047857 0.190624082769653 0.3811569565462736 0.45963446981108763 0.12178659464091364 0.029856096584098803 0.025197653781749846 0.012517542404727616 0.0013058286091174268 0.007326199451592197 0.0015048327266811681 0.004711267106480256 0.003947675148919415 0.003699609920335033 0.005065565931777806 -0.0038214046265490726 2.329040293522252E-4 0.004804625033832472 -0.009187987828159199 -0.026025748684381223 0.15154239359298258 0.5441442334970489 0.5701894263737363 0.24759874633510429 -0.017971259872340745 1.5782078974806424 1.7983858868770433 2.2434940258755365 1.3392526476410545 0.5870305265806612 1.8240317466030698 2.1618684508752013 0.32876942602816417 0.9491266816578104 1.3951340658033513 0.6457661856270053 0.10230109547849967 0.06984504754434784 0.01658661654532148 0.007867626224469335 0.004813880842671119 0.0026675417528269118 0.004731098349269443 -0.029403815190362358 0.0014228120652149364 0.04773353972390234 0.8154059381964261 0.9898660018140211 0.6946206485092479 1.6020058303035147 1.414259647817037 1.1310437521011794 0.39622921266469224 0.4393714650036631 -0.4653293031593463 0.8599222986343452 1.869337664415052 1.191242213713144 -0.23638123948930945 -0.14351268707289838 0.16217714500912436 1.4169408479864432 2.67924674622003 0.7004600373599728 0.25137833099355966 0.4318476322819173 0.04599489465703312 0.05768149738950115 0.022379804809396782 4.809037378093206E-4 0.005064906016777625 1.624344974567933E-4 -0.2073394383254086 -0.49941888959607067 -0.40260734582776814 0.4567876809393096 0.5900375365784168 0.6875541383988673 -0.6583214317837591 1.0597871342132905 2.303142482590635 -2.15885993696532 -0.05645679339480036 -0.16833269666643852 -0.9809141296173243 0.8689646240062238 1.0421735623748989 -1.3343943021300637 -0.3259628166904431 0.9734835791525654 1.6188074901372924 1.2509992275376551 1.1532791455177152 0.7401211522654936 0.2654187566639804 0.126784813422819 0.004611535154502262 6.921252618635676E-4 0.0014833500795921881 0.6490364350825585 0.10296727081886851 0.4415850063774904 0.4416594518168817 -2.9315920936312736 -2.9830091920697264 -2.0122490407184115 -1.134553720698915 -0.6762423166339947 -0.6581398644825271 -3.322412788112143 1.7022460196937106 0.15834576498486908 0.036530047223159785 1.6508453628767912 -0.23402470712054207 0.01529202330567316 0.3238609110978369 0.7314988328235799 -0.6471273521764357 0.6690014052944504 2.125112571783618 1.2560117311498753 0.404097809251697 0.1572912607529869 -0.0015237574808388346 0.008935168710299191 -0.026624849177551386 0.013944512852804757 -0.9765410435562348 -0.6716501578326214 0.6944909522668926 -0.3087386834796693 0.67053346072159 -0.24132695628577974 1.5383571580861177 0.16293314710394277 -1.2263598683956145 1.2359743036721906 1.2670497239553322 1.08546060218859 2.015460473877242 -1.5512523479778046 0.8094339451893886 -2.1373300793964036 0.06975983124522223 -1.1958460001191094 -1.7749640623146068 -1.905960314284174 0.5166574020238678 0.800981754963468 0.504535159966963 0.1976556344908235 0.01949809832949618 0.12780333800162982 -0.09382698875879207 -0.9217958099564915 -1.3184051268921873 -1.1726901570697288 0.18610107384353647 -0.21190350579236195 -1.5822678615105747 -2.4944520777251102 -1.2589081972719924 -0.047844363799387495 -1.347611707256062 -2.889975022914249 -1.095422788646585 -1.275495074199044 0.3162304067177233 3.0626497148202465 1.7804509009417304 0.15678359889945123 0.04073383790263946 -0.0057856856567977365 -0.5516832486513814 -1.3097041304840509 0.5292250770916243 0.8430310660798684 0.5460631806336144 0.538168968841302 0.10649558272595684 0.0032838242829936193 -0.035620131598440845 -1.0419506560812972 -1.511285661377777 -0.3839526965821692 -2.551348755728616 -1.3274604915717483 0.056621061016853526 -0.21172854428390955 -1.6206629702596167 -0.8096271383160707 -0.8374825453196428 -0.5886468529525615 0.6749926210248909 -0.9952309892779081 -2.257997664688284 -1.195386394751312 -0.6052612791751506 0.6476806073949152 -0.10621745431770924 1.7963663240933896 -0.2295801751761116 1.5486884100246954 1.7756587029914408 0.47494654096735156 0.36648820910854013 0.3519978218294225 0.029101288612575913 0.004955352562294159 -0.03153717698003944 -0.7976624164036642 -0.0648403474112404 0.5920155162057568 -2.038658018575181 -2.029395416822623 -1.609429188320008 -0.547638751103261 0.6272986030482912 -2.35395515413044 -1.1469012241771537 0.00790846385064288 -3.9891882554341 -4.133256183980065 -2.827017617937986 -0.10883138893309863 -0.49995454337568096 -0.6483993611628782 -1.5365563290570137 -0.14411526488053059 -0.9867145611243163 0.0288434110195712 0.26593580987290777 -0.33856696731316765 0.4206191670477972 0.33175418750985375 0.011765872294516132 0.0017316254685701222 -0.07572145483173379 -0.26123544032027557 -0.022593295119566748 -2.083646616183535 0.5512650850585179 0.8782526057211096 -1.6365345075175042 2.226103460722823 -0.592805287669733 0.3829441682857654 0.8985651118083388 3.9467501763423543 -0.12196824534478677 1.7212612013381305 -0.23958211582786018 0.7698897095796287 0.18664700073301868 0.954028358005091 -0.7937967194600656 -0.10087973232615503 -1.4337133134077267 0.2265735492552425 -0.5209924633002876 1.2540268096773584 0.5986549203037759 0.3919850401669842 0.019790219399312386 0.004427739318710836 -0.09752099770182991 -0.5852376285412472 -0.6967345666378614 -2.642320734458211 -1.1071440278265448 1.8798629536565399 -1.1055195510494946 -1.4658300189534537 1.2151489766176904 0.8078906050820135 1.5793976045686826 3.232588649005434 5.552516305054802 3.257400331428276 -0.6251592968082308 -0.06591512561741893 -0.5997509611473282 0.8522034237281664 1.686978829333623 0.4826674331761878 1.7900947645282554 0.930366941106851 1.4675226502682694 1.6740288843140025 0.0888646944345269 0.030214126556955167 -0.009065552522282675 0.003946937017864473 -0.011472331567072988 -0.9251229145101852 -0.25648132796633216 -0.8704054245011285 -1.0064473003018113 -1.4633522949851439 -1.4622331284367898 1.45031349987305 0.9642944866003743 -0.09788361370324088 0.9147029913766914 5.186416945201886 4.434792994245845 1.0180621828025433 2.160336308260436 1.2616018501412725 1.2147665373809604 2.7686198434639127 1.9279289143044815 4.872253970739272 2.813107744205573 -0.783895672324439 0.7572980244972288 0.6247078560290384 -0.3012543266566716 -0.18507673431589922 -0.1444579358838021 0.006468045772057565 0.0013148699389820312 -0.481003855289743 0.4667642833400551 0.326988190674735 1.3820992669031469 0.3507004340363874 0.37255208845030235 0.7498938572851713 -0.10648610995378308 4.033186598165002 7.939355005256851 4.73269823104281 3.2193007624500627 0.5859804390172941 -0.13820743774984617 1.1064243308290165 1.8612883385996575 -1.884928125325555 -1.7065731557023611 1.5031684506144911 -0.688839915073926 -2.2129849583088395 0.5179304268729336 1.7823325709913336 0.19048791571490986 -0.08059505739451386 0.0037897931741275497 0.005108598853659588 0.007781631588200165 -0.20056766840704307 0.5740400684170934 2.156601141537008 3.4625123713815 1.4977715610869995 2.2958635928431548 5.741146974273314 5.925145957565893 7.080131086116291 2.2602710895188203 -0.18206372069974214 -0.9307309588226877 1.5004225464498004 -1.6804679072523825 1.211323608419088 1.89922053925469 -1.2249048822994304 -1.7609415709657092 -2.032949646824655 -2.516359197291924 -3.2916618152037125 0.1293815381400915 0.5400315941250238 0.4738121826581698 0.09316380365352789 0.0029748536985788995 6.012938089654776E-4 0.006072478170432671 0.021473959548760718 0.6964677863184034 3.051719034622303 3.3479113603006074 1.303269382269797 3.0516363679807124 6.848279651996514 4.377490877127705 3.466686352069937 1.0281538080668717 -0.4323967546230981 -0.7505700588299588 1.2998040002480074 -1.603886016620065 -2.95238397916403 0.009859962445017417 1.5507779769705248 -0.2930649566333782 -0.7744858379761016 -1.5760849522318916 -0.6252235497144969 -0.5039702893990518 0.15005639017890854 -0.5185499154207771 -0.3765631800730129 0.008140151944750049 0.007653251302364455 0.0023319176692845533 0.05701746400623033 0.8561113700924389 2.6276531216476298 3.390558038272818 2.5522359696045305 3.5184221325223355 4.294019460117832 1.84374591726927 0.11157297022382598 -1.0727193239587074 -2.970944608846515 -0.054421512495352084 0.325817961383529 -0.18514428758071372 -2.186657440728278 1.160078583024547 -2.6391206273392336 0.6328727544615543 -0.06732911702042885 0.8464971831783034 1.2469445264560894 -0.24555292145814486 -0.5698516892819732 -0.824625836030261 -0.5497185832388617 0.009165952015439467 -0.12433512350700107 0.003187660234368406 0.16787017951827946 0.8988769249756955 1.2254383721156366 1.9021011722777317 2.1856602762092123 0.6210623892615643 4.654951146309746 -1.4435375184722412 0.47317682477073914 -0.08641726849261867 -6.299340170859804 -1.1453667190528376 -1.244275483572466 -0.9034113139082492 2.7058662693322066 3.112016468454686 0.7107010779008287 3.010144889189289 2.535461410475184 3.359831274119335 2.2828018834322537 -0.2245333030692482 0.06783411393627213 0.19476063207778502 -0.1998271663563555 -0.01104614466193368 0.007588119358820748 0.004659614301110794 0.10736075661252227 0.25606811844762134 -0.07511187657162118 1.448032326832993 1.7089265517430412 2.667510484708976 1.9725173989837101 0.01836372922961251 0.17381186600947174 -1.3924250653859271 -2.32706515251941 -5.087625569069026 -3.085674571180684 -1.9768638770279374 -0.962861788030243 0.4195012609111037 -0.2429880462906833 1.0180065023093476 0.5420609157148283 0.6583046227388877 1.2120893192394777 -0.6101852319855922 -1.20758391850744 0.2344941364340874 -0.01823934160696971 -0.0010874461725851477 8.303746114722943E-4 0.005922922912017445 -0.1561350361702105 0.002308606155996901 -0.040587008847975406 1.6015885002954955 3.3495618508199607 1.4197572989245342 -0.09583158413326877 -0.16993787340592414 -0.24440299316306013 -1.8058974806908663 -3.2004636073452652 -0.14762215285052604 0.9403161409808176 -0.23585724244278397 0.7993364559701938 -1.2226156758394997 2.051363005580601 -0.8784593199497953 2.2511013297351172 0.053619207634211345 0.6511608675677095 -0.9931153230934446 -0.29500692358762937 -0.3927668802776416 -0.02339046217693086 3.6713274444457765E-4 0.002957626564840787 0.006111491104045109 -0.38787089631954624 0.5065949991455234 0.5128322549069259 2.292684928290767 1.4025717687498613 2.377653830187554 -1.7670296566003543 -1.447314739861856 -0.05162994012835594 -0.6281294302308496 -2.357095434664509 -0.267698681952802 -1.049611715796171 -0.12836228331070626 1.4060012408930858 2.10565375058755 0.3745338867246237 1.538636086125298 0.21885418348902305 -1.8637317382713303 0.47238661164959744 -0.4710162935067398 -0.1679965018717717 -0.292223187023822 -0.06021217605603415 0.004051643977234562 0.007002464505715181 0.005803692714080298 0.03560917920764815 1.3144345108248192 0.5468558350116598 -0.2700893530913787 -0.12613613814580169 0.22488933486907875 -0.6116937449089034 0.01592856355125508 0.9017124560274075 -0.29564033638248166 -1.336684851012756 0.42314173143857986 -2.293712954563745 -0.607808029868749 0.3488036495451608 0.28193573830524743 0.4217824859446895 2.058014450760004 0.36978021204802985 -0.10424807032777435 1.0914065075084638 0.274717967532676 -0.40684664980038204 -0.08541684475748489 -0.0041054177036090825 0.007967796919956537 0.009087310393757882 0.007757278902027275 0.3183663875647852 2.2094015840951164 0.9282089517208558 -0.007931621830088439 -1.155607881126222 -0.8282932865137853 2.5639490670216367 -0.5520609539277036 0.16625541467486427 1.0147926966608565 1.6335892467669255 -0.6245566849553801 1.3656103477084105 -2.592468233589996 0.44084206068788084 0.4274483987169158 -1.1054551892622135 -0.60254576899523 0.7815324271504973 0.3204633582873855 -0.519035927685956 -0.4826373370168859 -0.8361800016300024 -0.05585611879888445 -0.009596784964403792 0.004759411724010231 0.0028601444144898294 0.008241631367163159 0.3310177675064566 1.0029303608384885 0.6805910106519568 -0.6727544094618667 -1.2816926268777307 0.5139733651069247 1.5440622521229668 2.878344638577263 1.6263136223045331 0.37931172548716524 0.8104819527247742 -1.4642377517315868 -0.07755004591695823 -1.3990274895314256 1.4091147162295865 -1.9175156586185547 -2.221735917712599 -0.45258584864986035 0.44840556590416325 0.7395838160389989 0.5230131271753397 0.6981910816409231 0.013115740822740423 0.004422817457151984 0.00828784820784668 0.005491616016388807 0.00931388568408871 0.00590395201953011 0.07329676923281592 -0.28266526386612634 -0.5012729727742743 -0.09895629496554327 -1.3164790681660072 -0.2797552983851095 0.33365272197150897 0.34181087357660117 3.0790059528489007 -0.47065578344089165 -0.678142834942631 -1.566481381325997 0.5054901642766839 1.8895335855405961 -1.4171900685204304 -0.3913906742414084 -0.022822017733201947 1.6505064522338795 1.1364462624401312 0.09460667859014889 -0.2748914573172837 0.3413060631463651 0.08012781382200154 0.007397889415134275 6.303185094476384E-4 0.002204021241056262 0.004778286942233022 0.0076490988201424115 0.009290351487386812 0.002736774659579502 0.5061145366536453 0.18345917994857053 -0.24212679777342072 0.7813403003021486 -0.4492807581496058 -0.4224327295522089 -0.8249089238988182 -1.3604170686272565 1.2182073585037783 -0.9222079717861154 -0.9992390731907503 -1.0565998860393406 -1.3175960453161895 -0.4463595325344204 -0.2489751147614279 -0.5984457061599986 0.5110171381905505 0.4438934322921092 0.09080709230180553 -0.09771721559043291 0.008454319190138832 0.0017192240792959135 0.0022562818088390116 0.008581926369387184 0.002804219031342947 0.008469788588846193 0.006708034244874407 0.002845206943945696 0.00931886288140179 0.004474356058893854 0.002990221148907294 -0.07257174517932484 -0.05357549056979011 -0.2559244195703044 -1.101815411841726 -0.14365614939992533 0.07069070170195166 -1.4926820542072183 -0.2171459044041145 0.4765292156250212 0.19619670786713067 -0.2954946611150743 -0.37612844644221854 -0.5806540999806913 -0.1390547889985156 0.014834490854951837 0.20764308715224417 -0.012458124511322192 0.009942650543817108 0.006813694342301049 2.7268452322819935E-4 0.004273693161149897 , 0.003096551817665716 0.005699614027839415 0.007648324253181939 0.006830076261733418 0.005745462005000719 0.008761672486803648 0.003589340215976584 0.005476466266814853 2.589319727339445E-4 0.009561145685244464 0.005411644380036828 9.340299400807572E-4 0.006249263763978275 0.0019274979300469086 6.151265923097327E-4 0.0016471645538785444 0.0016131434586147686 0.0032669099075690114 0.006312169812159913 0.0023943335682849675 0.0086495372859985 0.004671507462703867 0.0015449340920507405 0.007240647052878141 9.132796186137404E-4 0.003561989057149465 0.002415502222190864 0.007734363560008575 0.0028750228978079127 0.003854221385854082 0.007610286265839971 0.007584420965869015 2.3269766140046887E-4 0.009986907507150955 0.008459489441345792 -0.004728344626274892 -0.02988770238541679 -0.03416318629299712 -0.060319237471222635 -0.13460953769425363 -0.22674027971687774 -0.15116495460252302 -0.2681974717676518 -0.138701640699989 -0.039472500841593504 -0.0879058772937534 -0.33839446604669593 -0.22308698204428734 -0.033660950531020854 -0.028116176719252164 0.003445095524119821 0.005788684513806248 0.008149427362685466 0.009593796273488334 2.531817148027915E-4 0.008969719821977046 0.00292353290426529 0.004125283038833412 0.002980600332085439 0.009239030845195407 0.0063395312133151345 0.005825398985431954 0.002385503360524161 -0.022777720598527184 -0.0979929762454406 -0.6238793766082718 -1.1068515814753361 -0.7298051136943308 -0.6139400121711314 -0.37522462499442344 -0.03581375995740904 -0.5804006026633411 -1.0706137022347693 -1.6113397125581073 -1.6576108551553355 -0.5266071520238518 -0.634219878347844 -0.8657078517032102 -0.6839165342157456 -0.27548057678124566 -0.062077090451860356 0.00820725056822999 0.007494462061884551 0.007236639452767506 0.0021605658340485244 0.0026797936814755142 0.030403957222664146 0.00733533533744954 0.011727643696683655 -0.112568517762247 -0.17659765464518526 -0.11874527839706683 -0.001477756779433675 0.034681014302471086 -0.35553314779839906 -0.897533096516886 -0.3873795011351945 -0.3532304972881939 -0.6275671546861199 1.189020862226772 1.1250706793636622 -0.3039582194018024 -1.098864899319918 0.2354908857591507 -1.5704013551245053 -2.984166428451912 -3.1444709904964423 -2.2599832562059112 -1.495582797326291 0.21628360935749869 0.0397102055659605 0.009624731690583858 8.232076482055495E-4 0.003992769099227284 0.09917020747412078 0.01762542893634646 -0.02642921997112628 -0.04541035032186003 -0.22670235317301315 0.12763356959201486 0.5539688495087997 1.248103494587819 1.1694594040148936 2.817248681105253 0.6633928910496609 -1.3112986344899986 1.4503797057953052 0.6902797960267413 -0.17068406704687428 0.9819471865180374 -0.7901270262526124 -2.0428123621683603 0.13754548038864253 -0.7817433894171534 -3.490508955310561 -2.4082703885049557 -0.8847103699538137 0.4524060714979028 0.2238459116746359 0.03454794611787025 0.003304494836435782 0.0015030127278724092 0.018157475830635685 0.06814580004668645 0.14697169711686528 0.12809505924460368 -0.22049479859927215 0.12319893048816656 0.5518551167603454 0.036016029710514395 -0.16192154546519572 2.0829596602927563 0.3825039301001988 -0.02889521161597448 1.8977003291303975 0.052259960831605425 1.094090164502376 0.20890679518179917 -0.9787477146693574 -1.605046025025629 0.28857049657311495 1.126301370961386 -0.05205430961363814 -0.4152823916350695 -1.0290884341886175 0.1890367661821718 0.07218589458927542 -0.018229662588204274 0.007318589806878657 0.008849971455720276 -0.01460473731821028 0.22497475907155934 -0.09521839653060821 0.18765292363682146 0.7129131798861883 0.46915141366005375 -0.2332789897757787 -0.40005468693686635 0.16908939692131994 -1.3009910853031021 1.6309535720450328 0.01465327225833601 -1.2142746588137598 -1.0166333962909457 1.3386513386827696 1.0271696393027034 -0.20277436447341263 1.932122505067229 -0.49990692494608413 0.7374495928769729 0.36972032029374274 1.0912893525667855 0.170773041999353 -0.6835030752445975 -0.3317989401419977 -0.05373082471804429 0.00624719965943872 -0.10177050470542966 -0.05822456873204906 0.12779489764193697 -0.24586222092418608 0.549852341294277 0.4978167145494046 0.28750777727587823 -0.7808298614036879 0.9547869143462965 1.483870288318348 0.003937567393541116 -1.19027166143175 0.8556370677682097 -0.8463918266512157 -0.9752081052713211 -0.17635129519829973 0.0629632806550394 -1.032555913916113 0.1457696579617048 -0.6743619397379849 -0.6155116578023656 -0.24967123268150365 1.2344295751034855 0.5420489235328332 -0.33004314590167766 -0.16542267106871317 0.08324920862956553 0.007929191844085717 -0.007468178619685219 -0.2810625357845722 -0.4427441347770231 -0.09009786945989516 0.4586800156014198 -0.18692399178812144 0.808646001913869 0.9789154492559194 1.1830982083767496 0.8310585208493054 0.6684202026259038 1.0382664566962179 -0.13798968247968615 0.37362168820219005 0.48898030983766294 -0.05588418041646378 -0.30666055747357246 1.1321860878548167 -0.713587403685715 0.5039160213730024 -0.26545093354755334 0.3556158697672868 0.41273429802780787 0.4090150644795916 -0.8383733914351186 0.04879780837272198 0.05032816376020058 0.008054298050100474 -0.013471831524668913 -0.16939604940088615 0.07564173424028872 -0.05573076760873206 1.8014199143487717 1.9243038659878269 1.291390863252789 2.1632803398757376 1.7211420454530806 0.246720975076643 0.07721051813339713 0.43313362237976066 -0.02667883066685962 0.13987139785999733 -0.6383444673148193 0.4409375440937448 2.970061211950464 0.7210927575234353 -0.4146076058553705 1.6373578579863906 3.5013900362412786 1.3440787502782596 1.3112457547582095 -0.14602969609118693 0.3267306024840726 0.4948379961346959 -0.005374785976819409 0.007482509339015869 0.006272093989949372 0.014011961092427883 0.28826661734686765 0.5902158686223886 1.8233279905480706 3.77764374281651 2.775441614617877 2.714073555998559 1.7608954644623598 1.0099679917094149 2.1181593187847323 1.0138789121491405 1.2403849575811812 0.019059673262539656 0.13468392831649598 2.363824793109341 1.2821444983644432 1.0376130977220324 -0.32368791582188045 2.134165617174621 1.1195891818706918 1.982926476358936 2.710522501745187 0.6651745871459591 -0.3619133923234703 0.4190023016009483 0.1487217551057122 0.010168001781014648 0.20028872810364046 0.5011635005205688 0.7178496601300733 1.1884741747900862 1.5231463531417224 1.8543821366745743 1.3127791394441846 -0.2976316323628753 1.5672975184586726 2.38695645513778 